1338 100
， -0.7919969 -0.17403361 0.2767545 0.62535286 -0.27876076 0.23213439 0.750588 0.997835 -0.43271217 -0.38553607 0.5877083 0.31049132 0.69686335 0.7662614 -0.48898235 0.3708069 1.0918529 -0.12701714 -0.74641365 0.37402225 0.12092907 0.047953863 0.49273378 0.7216751 0.40438688 -0.014101978 -0.3855467 0.5413199 0.2745203 0.62598383 0.6149694 0.092903584 0.43073556 -0.9867979 -0.044851996 -0.22198442 0.19634661 -0.68668264 0.09466241 -0.3374967 -1.4216253 0.1966415 -0.114530295 0.16207466 -0.67835677 -0.096267566 0.40139687 0.27464682 0.015099946 0.61285764 0.36787936 -0.74327105 -0.69149166 -0.08595073 0.45652306 0.32721862 0.8940241 0.65741575 -0.2675734 0.33385015 0.29450458 -0.10498344 -0.5033485 0.11135053 0.6147965 -0.050130762 0.00738796 -0.21622802 0.32118362 -0.20682667 -0.015564747 -0.60751724 -0.12320824 -0.5346087 0.27314687 0.20453951 -0.35495573 0.39072296 -0.97002304 0.26332918 -0.6955455 1.0112379 -0.3437235 0.55548555 0.25374827 0.3355367 0.5536498 -0.62640977 -0.042784378 0.923076 -0.17987394 -0.43548897 0.31892788 -0.8338736 0.16050147 0.39506716 -0.098954074 -0.89091927 0.010428431 -0.06922203
的 -0.07161758 -0.33433375 0.16519845 -0.08706702 0.29034555 0.84236485 0.5356057 0.79103136 -0.39136222 -0.5054564 0.3476877 -0.16497387 0.28463432 0.98767364 0.15670517 -0.2403562 1.0073432 0.5248527 -0.68801844 -0.3351493 0.1628031 -0.8003818 0.43076712 0.305785 0.044619806 -0.2536472 -0.07627084 0.6307906 -0.5182498 0.37052244 0.8302997 0.43290526 0.100428686 -0.82124203 0.72459817 -0.51090586 0.06701346 0.031041186 0.13178663 0.26610118 -0.17604782 -0.21885943 -0.106732905 0.1980871 -0.007544857 -0.40608028 0.3079389 0.3562955 0.21942115 0.2789938 0.10195003 -0.4036369 -0.5636149 -0.17212732 -0.43204555 0.12561652 0.5601875 1.2029 -0.39790496 0.49169815 0.32186908 -0.45303428 0.3366565 0.8986004 -0.31092244 0.16526422 0.35369322 -0.55003315 0.10484586 0.19346091 0.21252699 -0.77079564 -0.15304714 0.14962536 1.2210699 -0.28267416 0.6938712 0.5353537 -0.54837924 -0.30582622 -0.114522524 0.13417892 -0.19455013 -0.37880978 -0.47266355 0.31202567 0.65167904 -0.7216266 -0.3277603 0.16603693 0.6094847 -0.12663785 -0.028118888 -0.62099105 0.25959456 -0.23534997 0.45462507 -0.89717644 -0.08611469 -0.32305843
糖 0.31754804 -0.6162891 -1.5582746 0.374103 -0.13638505 0.68399394 0.29146457 -0.011053785 -1.3952504 0.18070093 1.0673928 -0.22662751 1.3229066 0.7022612 1.164479 -0.38502744 1.7589723 0.28861663 -0.7725488 -0.8498599 -0.19056897 -0.75804865 -0.38067478 -0.8659568 0.4565449 0.19190224 0.5703768 -0.10152027 -0.667558 0.7445076 0.03537094 -1.0345098 -1.5028719 -1.6091435 -0.25119314 0.41536203 0.5845375 1.2934606 0.09840256 0.6216833 -0.95435345 -0.8427929 -0.026165837 1.2188323 0.75407255 0.7361838 -0.42010903 -0.106533326 1.0730927 0.7234474 -0.6009542 0.34582862 -0.5777931 -0.5949582 -0.8213494 -0.42520607 -0.11141897 -0.56506723 0.10679531 0.10824273 0.13115036 -1.7900567 1.3046455 1.1763216 -1.5773736 1.2115179 -0.15724064 0.96899563 -1.1017432 0.19189323 0.9045561 -0.03561451 0.6377647 -0.10518944 -0.51659286 0.9346515 1.0624355 -0.27626437 -0.93791443 -0.025384048 1.0881469 -0.637099 -0.4627988 0.13991079 0.06788041 -0.6388371 0.5083699 -1.2861751 0.74295634 0.9506984 0.10141362 1.1700486 -0.7293378 0.17923957 0.47157994 1.1177329 0.010579217 -0.5734473 1.0594273 -1.7841994
。 -1.3448125 0.4317278 0.32646272 0.8328933 0.3444928 0.037410427 0.29959986 0.6905466 -0.15456569 -1.3593996 0.007627677 0.49824437 -0.1324448 0.53408515 0.40687597 -0.18739778 0.57977766 0.7434703 -1.0575366 0.4934128 -0.53981733 -0.08727177 0.22489671 0.7391729 0.22852416 -0.3607292 0.036043156 -0.067539774 0.24594975 0.37376904 -0.041300055 -0.12576468 0.05269276 -0.8540229 -0.08668626 0.18750274 0.07989822 -0.06880192 0.015523874 0.08333572 0.24685138 0.32243207 -0.0962527 -0.23846467 -0.33343056 0.076129444 0.052439667 -0.3593704 0.3701122 0.33403304 0.1703228 -0.86077905 -0.7543104 -0.21384846 -0.27068287 0.25723192 0.7548108 0.030768722 1.1826445 1.2009083 0.80850637 0.42320344 0.3154316 0.18726034 0.27955455 0.22393219 -0.24210367 -0.22474463 -0.10912367 -0.5459734 -0.12961242 -0.54419714 0.22668932 -0.016571963 1.15635 -0.5740207 0.32712466 0.8198845 -0.17905782 -0.49393973 -0.643012 0.24887131 0.29834625 0.5610519 -0.16017468 0.3779011 0.42455733 -0.17408213 -0.4532718 -1.1316804 0.15677416 -0.12148771 0.0855254 -0.8500075 -0.2814277 0.27939847 -0.312275 -0.139174 0.43859753 0.70638156
血 0.09630351 -0.27376816 -0.49791175 -0.5412199 1.3425442 0.16038233 0.78288674 0.18872891 -0.39972746 -0.22901425 0.85082215 -0.12329549 -0.29372916 0.9530938 0.7159221 -1.2849485 -0.19088747 0.46561763 -0.3987454 -0.31447384 -0.43780482 -0.22219446 0.6910247 1.0499787 1.1757286 -0.10117011 -0.8397945 1.2542925 -1.8515856 0.3231732 -0.77669597 0.5341 1.034086 -1.9471515 1.0696651 -1.9681908 -0.6987913 -0.5867923 0.6471877 1.1302773 -0.8226441 -1.2973695 -1.3848306 0.26461112 0.22200634 -0.6433191 1.0906317 0.7951538 1.3075782 0.28457153 0.9388957 -0.52348083 0.01597187 0.4550486 0.32620943 -0.9818869 -0.71389186 -0.10541396 0.6212898 0.29701814 -0.29371676 -0.9176243 0.95988524 1.3602333 -1.2985535 0.24370468 1.3725821 0.92091805 -0.08418409 0.69949996 -0.88069093 0.64708316 -0.043468982 -1.0960547 -0.16454643 -0.5557998 -0.17552336 0.07804271 0.98978734 -0.2948389 -0.6545795 -0.52485406 -0.4479718 -0.5720153 -1.085524 -1.0503751 0.60976905 0.6206381 -0.8713134 0.4115312 0.23248737 -0.718262 -0.032564953 -0.045191158 0.6220564 0.5629195 2.2797296 0.61039215 0.36042035 -0.35377884
病 -1.5011132 -1.3796585 0.016848765 -2.3472774 -1.1055173 0.3522258 1.0131814 2.1236815 -1.5840168 -1.8264223 0.36086294 0.8422561 0.46760187 0.29591337 0.335776 -1.5633394 -0.2694245 -0.60493004 0.28483394 -1.5051448 -0.24366517 -0.96740764 1.6441482 0.5704813 0.037742857 0.61663145 0.21388753 0.6217887 -0.74453235 -0.26056468 -0.50568956 -0.09470274 -0.7316891 -1.0154439 1.6121955 -0.6704125 0.6082564 0.6220615 0.8499774 1.5610546 0.6667029 -1.1381822 -2.3909905 0.5389886 0.84003305 -0.6856327 0.6648594 0.79904616 -0.17344183 1.1753317 0.10893397 0.74799114 -0.9292725 -0.5896387 -1.2287828 0.50524914 -0.44066864 0.9825048 0.028173316 -1.069926 0.41023707 -0.3671103 1.7232716 1.531841 -0.45240325 1.2574208 -0.8561686 -0.31487897 -0.16619462 -0.27177182 0.77332115 0.89614254 -0.68052655 0.3634857 1.1621754 0.4490385 0.5025451 0.60859644 0.59793484 0.5238621 0.5302568 -1.0996696 0.7106807 -1.2495265 -1.3131548 -0.42282024 0.20862229 -0.43310428 0.6078644 0.8005974 1.8986845 0.22343431 -0.40074056 1.267054 -0.40705958 0.93952113 1.3390777 -0.87725097 0.76431245 -0.73168457
、 -0.5056654 0.027003696 0.12581901 -0.39236212 -0.024231598 -0.4131049 0.43840265 0.18342137 -0.45146027 -0.23294935 -0.20274232 1.3250442 -0.7624919 -0.045033816 0.1344221 -0.260734 -0.0888991 1.4452913 -0.22901256 -0.895764 -1.025439 -0.87681544 0.2282756 0.8908101 -0.0765966 -0.026111575 -0.34181848 -0.44699493 0.0874875 -0.26804397 -0.15565991 0.04020563 -0.4162818 0.153911 0.30732766 -0.5021432 -0.65679955 -1.0110573 0.12772353 -0.78988224 0.6123026 0.0817073 -0.08123153 -0.9126629 0.113763 0.25945458 -0.6459861 0.7895022 0.34022024 -0.17065713 0.73103744 0.47427794 -0.22917983 -0.10255541 -0.23287912 -0.6930249 0.3116641 0.39898044 -0.9862542 -0.32695052 -0.10289578 -0.10096231 0.33253777 0.8267675 -0.115255274 -0.0041697123 0.21856189 0.1410063 -0.87674373 0.22897914 -1.037289 0.31618062 0.6203523 -0.14306284 0.16004011 -0.2820309 0.7888794 0.45447707 -0.40986943 -0.8392559 -0.503477 -0.5508951 -0.9936932 1.0844574 -0.38270706 -0.65198225 0.6062095 0.07749038 -0.26418123 -1.0990124 -0.90756327 0.13093458 -0.12309001 0.21116635 0.041316018 -0.13026433 1.2634082 -0.55038816 -0.80706024 0.27357778
者 -0.734698 -1.5077583 0.048002932 0.5723036 0.34663555 1.1295283 0.63819265 0.29499534 -0.9280316 -0.4357186 -0.84007007 0.41097134 0.022893539 0.8608615 0.19957381 -0.3369299 0.10400458 -1.4058892 -1.2898617 -1.6954026 1.3378675 0.18314256 0.049203027 -1.2921818 -0.6689889 0.4514005 -0.11244399 1.8225325 -1.5559721 0.9975186 -0.59063697 -0.41883668 -0.1276773 -1.0642544 -0.3497842 -0.46049824 -0.4087053 0.36341044 -0.2487592 1.0855302 0.5952383 -1.1580889 -0.4813041 0.6758384 1.6045189 -0.4501855 -0.51814324 -0.5038268 1.8713386 0.37713683 -1.4541957 0.46398643 1.5172399 -1.1110337 -1.0615379 1.1556965 -0.5014605 1.9609774 -0.4511385 0.6102337 1.189899 -0.9914345 -0.22145987 0.94656044 0.3654306 -0.030808577 0.19743477 0.41404542 -0.37875032 0.09227853 0.9246629 -1.3239101 -0.59905773 -0.30325606 -0.40093407 -0.03897372 0.8790248 0.32475922 0.08164056 -1.0832927 -0.59622574 0.23849219 -0.2646819 -0.65091527 -0.0041768537 -0.36515814 1.46861 -0.31381375 -0.0015956835 1.4103801 0.61481506 -0.9051069 -1.3083746 0.7300503 0.8203186 0.40514505 -0.57751536 -1.6289822 0.82708865 -0.8790119
1 -1.5442182 -0.1005243 0.11373464 0.9188887 -0.0107384445 -0.30765033 0.32094175 -0.40299898 -0.5389576 -0.46367413 -0.44387892 -0.91571826 0.29464433 -0.30478993 0.5985926 -0.07952383 0.106697164 -0.06914124 -0.5732936 -0.3615317 -0.09083451 1.4167203 -0.81641734 -0.109614514 0.9252493 0.19380489 -0.65202516 -0.15356648 -0.2690204 -0.884614 0.648832 -0.94617516 0.7101962 0.07989172 -1.0465227 0.6399188 0.97727805 0.85793793 -0.50639474 0.4126856 0.13767898 -0.049849756 -0.8634664 0.32802582 0.13359194 -0.16999544 -0.56048703 -0.7580907 0.59645617 -0.01716082 -0.69404906 -0.51794416 -0.2550269 0.19812012 0.2428597 0.14080478 -0.053554386 -1.5396004 2.1910264 0.9331236 0.21996722 0.07058045 0.86762434 -0.46238387 -0.5011728 0.7457684 -1.5439115 0.18407652 -0.6757689 -0.3086587 -1.1160192 0.6236788 0.7683884 0.10539716 0.060324922 -0.3544224 -0.7586354 0.5524551 0.37056077 -0.73645556 -0.5643548 0.027962174 0.49852616 1.6714637 0.06435724 1.0235381 -0.47723815 -0.21443382 -0.51233023 -0.0041694203 -0.49476486 0.26848796 -0.14735045 -0.113481775 -0.19243918 1.248332 -0.36617917 1.5281605 0.11078607 0.048573315
2 -1.3346556 -2.0956738 -0.3013894 0.45129976 -0.24201699 -0.405838 0.1081438 0.45717695 -0.45000786 -0.8669442 -0.32614788 -0.7074829 0.09700178 0.03178444 1.087356 -0.05054449 0.1679959 -0.55277336 0.17976344 -1.4728125 -0.05985101 0.85454804 -1.2397437 -0.64559364 0.64610684 -0.1667146 -0.70814747 0.8049678 -0.41275576 -0.77557784 0.83981085 -0.44538164 0.50048167 0.5099468 -0.5157121 0.6284479 0.66086745 0.92022985 -0.4900151 1.6353147 0.9984686 -0.17888093 -0.77380675 0.21027648 0.7554651 -0.20640388 -0.593325 -0.9397604 0.35940585 -0.021237725 -0.78991556 -0.43485925 -0.2438121 0.42842692 0.07386171 0.34055096 -0.5985257 -1.3614154 1.706789 1.2370763 -0.26701406 0.20160487 1.2418791 -0.08674985 -0.20291981 1.5817649 -1.4819474 -0.94573563 -0.45499426 -0.28723714 -0.06346647 0.50892884 -0.49494496 -0.010618197 0.32562643 -0.47472036 -0.26743352 0.29582682 0.8652194 -0.81407434 -0.18307881 0.13190104 0.123269275 1.6805263 0.17009541 0.53992933 0.19451116 -0.3121002 0.07740303 0.6146399 0.903469 1.0182704 -0.2743181 0.5015614 -0.080862105 0.97168094 -0.51872414 0.8831851 0.40440375 0.018962013
患 -0.06614376 -0.7777442 -0.48890984 -1.057229 -0.1897652 -0.33262888 -0.06105935 0.7396894 -1.1078111 -0.75257486 1.6252723 -0.15031525 0.8337745 0.22345111 1.1283712 0.107414775 0.6609686 -0.27863345 0.49407795 -1.0512727 -0.18728416 -0.4010753 1.2301171 -0.004788802 0.26609245 -0.25006914 0.028745595 0.74782014 0.8922237 -0.25176802 0.22705494 -0.45483822 1.2694062 0.12949803 1.4889674 0.4936454 0.8437845 -0.42734596 0.033083808 1.0260203 -0.7225706 -1.6638209 -0.6884306 0.3563304 -0.36054337 -1.2086743 0.12366752 0.48499465 -0.95613694 -0.021836404 -0.73459935 0.78551 -0.82527196 0.12089446 0.059043165 -0.8230677 -0.48777318 0.27101082 1.688323 0.41928527 -1.466898 -1.1232821 1.4950507 0.5252837 -1.6088746 1.2735875 -0.3793035 -1.6503454 0.4340336 0.56638294 0.09511106 0.637212 -2.2149506 -0.05504193 1.201588 0.94804716 0.45146775 -0.8815432 0.24564877 1.2035538 0.7398002 1.2389691 1.2034285 0.91080624 -1.1401501 0.44386974 -0.2584891 -1.4124628 -0.0073422953 1.6362642 2.032864 0.57451236 -0.32448852 0.47732282 -0.815116 0.49719054 1.1077348 -1.1014853 1.1610491 -0.27568552
用 0.40486977 0.35663188 -0.3055595 1.1472019 0.5534813 0.77394724 -0.93451 0.32478273 -0.48135453 -0.1815492 1.2655588 0.56619316 0.53599924 0.6446053 1.6559532 0.87618893 0.26732552 -1.6224724 -0.61715436 -0.990848 -0.8211389 -0.79516894 -0.83844423 -0.9629091 -1.377757 -0.94789 -1.0625352 1.3479873 1.7630318 2.1766942 -1.0130528 -0.76052403 0.71890277 -0.7593301 -0.63411987 1.5687433 -0.7875319 0.38389674 -0.6988075 0.14376159 -1.0467675 -1.3636545 1.536626 0.7901841 -0.1274721 1.6331823 0.32742512 -0.037740417 -0.8413142 1.0402728 -0.054061685 -1.4808702 0.53630877 1.3870239 0.29901642 -0.21543297 -0.42316422 0.09801568 0.48554668 0.54565126 -0.23684208 1.2168715 0.22266087 1.3071471 -0.14707059 1.076707 0.13076891 0.42386034 -0.74128616 -0.12908828 1.3689781 0.46261132 0.99006206 0.82141834 1.2976176 0.23974979 -0.31570125 0.5592915 0.05714034 -1.3797988 -0.47931147 0.6803687 -0.065367505 0.10583775 2.0341399 0.23694924 -0.82429063 -0.8846752 0.06970054 1.0510703 0.8652387 -0.31015563 -0.60274667 0.23713233 -0.091496296 -1.3674214 -2.3735976 -0.30086103 -0.7587561 1.1605245
尿 -0.3979052 -1.7039006 0.13936007 -1.0228322 -0.70409244 1.2521986 0.4220219 1.4689883 -0.31919625 -1.4921271 0.0084053725 -0.12029698 -0.10781039 0.411501 0.16493274 -1.1439298 0.614671 -0.8281468 1.5004416 -2.5985806 0.28304708 -0.6336724 0.28651282 1.0442233 -0.4720306 1.6902039 -0.65693516 1.1327657 -0.5098146 0.8784048 -0.43132696 0.38896126 -0.20353168 -0.7035604 0.4477746 -0.86096555 -0.6047797 0.1914533 0.29730296 1.6092597 -0.712474 -0.29831743 -0.88114715 0.18848589 -0.17195387 -1.0850037 0.8893535 -1.17833 0.24156843 0.3039568 -0.30341163 0.31827658 -0.57420975 -0.7393505 -0.6139546 -0.00914711 -1.8506824 0.15472423 1.1569961 0.8910018 -1.1287484 -1.2395587 1.5562226 1.486079 -1.4294568 0.5849149 -0.38487437 -0.1375764 -0.88918155 0.13948567 0.47369352 1.1182985 -0.6806398 -0.81014514 1.1918305 0.030899499 0.82896835 0.20805751 -0.023352947 0.10687079 -0.52411836 0.19371438 -0.087803386 0.5865883 -0.7370057 -0.65122503 1.4613159 -0.26015624 -0.3400771 1.0981404 0.6122746 -0.0651945 1.0944921 0.27475268 0.34654805 0.12011803 1.775927 0.46180475 1.1756845 0.35418954
( -1.4266987 0.5147167 0.13610503 0.214922 -0.029826352 -0.58048207 -0.041903347 -0.085151434 0.14883313 -1.5527205 -0.39522254 1.1959844 -0.60645634 0.17759137 0.33219486 -0.09530005 0.683537 1.0342318 -0.86489445 0.14842978 -0.26592386 -0.42459974 0.06324936 0.42146397 0.30979988 0.8434355 -0.7450094 -1.047334 0.33346647 0.4256297 0.0032642225 -0.6572765 0.7648952 -0.5992557 -0.55241513 -0.80138767 -0.09278988 -0.026657235 0.0880187 -0.08246132 1.2233704 0.8655905 0.63667893 -0.6805369 0.31103256 -0.9686516 -1.0146465 -1.1646341 0.8649232 -0.23045824 0.25143558 -0.12216519 -1.5521693 0.28521037 -0.048356023 0.11274457 1.0160259 -0.10015864 1.5180463 0.49571416 0.2676708 0.3519648 1.0429187 -0.008429135 0.47233108 -0.0051697227 -0.72195053 -1.0866295 0.1929016 -0.55081266 -0.9387482 -0.0539136 0.17729954 0.7906592 1.3667032 -0.5986251 -0.15131786 0.1757362 -0.47669753 -1.5810262 -0.57823783 0.3701152 0.68988365 1.4866526 -0.5507959 1.4467183 0.53883934 0.32653174 -1.099626 -1.288563 0.4919243 0.34377715 -0.3546211 -0.5053649 0.59141535 0.008465903 0.48895773 0.12572394 -0.86674935 0.44136715
) -0.8615162 0.6141993 0.12494791 0.02537867 0.63003093 -0.9722073 0.08217936 0.028168254 0.33876762 -0.8496085 -0.122982614 -0.5011497 -0.60497576 -0.004400292 0.17333452 -0.4669073 -0.37156612 -0.23335114 -0.57570636 -0.62681735 -0.114532106 0.43440428 -0.15869677 -0.7498157 -0.3092207 -0.18274814 -0.53688556 -0.4155318 -0.17997198 -0.6962344 -0.76879233 -0.7790236 -0.03615109 -0.04814746 -0.8297892 0.016772643 0.12070322 0.95079523 0.18255469 0.44364065 1.8077914 0.4301123 0.16794027 0.12974596 1.1053562 0.03185318 -0.91620064 -0.7554146 0.4847267 -0.24793406 -0.26970968 0.10443073 -0.14258547 -0.21338552 -0.19085675 0.19964142 0.0105219325 -0.89539665 1.8411441 0.35550684 0.435919 -0.20196873 0.73283637 0.21625976 0.2804852 0.37141815 -0.29230142 -0.5504306 0.23982517 0.083311625 -0.35791188 -0.46985173 0.056123808 0.2566505 0.48668545 -0.36995214 -0.22907445 0.03398848 0.37575218 -0.409402 -0.20486653 -0.700983 0.27127883 0.9692229 0.016458353 0.40443578 0.6151977 0.24864705 -1.073946 -1.200612 1.1791649 -0.078015946 0.014384675 0.71394205 0.47399223 0.12621963 -0.19542184 0.65540016 -0.2571309 0.5150141
0 -2.2495482 0.16541338 -0.113490745 1.2654217 -0.65955675 -0.62843156 -0.022110943 0.40318277 -0.4602875 -0.55345696 -0.73079824 -0.3227873 -0.028926862 0.093573436 0.03124303 -0.7583834 -0.44691658 -0.5030123 0.574697 -0.05794244 -0.40854093 1.9407932 -1.247783 -0.60990345 0.8959137 0.24441063 -1.4423988 0.115179084 -0.11261148 -0.910656 0.94885075 -1.0980457 1.0645086 1.0113044 -1.5788026 1.2331783 0.84333014 0.42570055 -0.29001728 0.3476321 -0.19376114 0.04949805 -0.86711806 0.43019915 -0.031920988 1.3337373 -1.6142788 -0.9987394 0.31044164 -0.38672808 -0.53544694 -0.1334634 -0.18853661 0.029311769 1.003306 1.5008678 -0.20054483 -1.8083327 1.6475259 1.0577892 0.009767342 0.04196238 -0.296024 -0.6453816 0.6004213 0.8135236 -1.9699545 -0.12166562 -0.37475693 0.32133958 -1.9672238 0.9017876 0.22083956 -0.30845892 0.28057522 -1.1994764 -0.57012916 1.0558735 0.40100944 -0.7126019 -0.9358773 0.32036358 -0.58424276 2.2039666 -0.15269992 1.1343182 0.38687667 -0.593324 0.6196936 0.64352304 -0.14985588 0.49400482 -0.3526858 0.35370708 -0.86124444 1.9729184 -0.4436823 1.4207015 0.00021952139 0.21824566
素 1.32578 -0.69345564 -0.3456302 0.89143944 1.6176467 0.25007963 -1.2614794 0.4999113 0.47822404 0.4859876 0.1273309 -0.27138284 -0.858488 1.7895027 0.0061418028 0.57588464 -0.8053441 0.9486665 -0.19974138 -0.87107974 1.2265979 1.159099 -0.9165018 1.1474646 0.22411884 1.3279643 -1.0865604 -0.060881715 1.1338283 0.39312115 -0.3908611 -0.7371126 -0.10584212 -1.1464825 0.80116105 1.3168952 1.4261459 -0.77063715 -0.77421063 -0.44866988 -0.1053363 -3.024582 -0.028061748 1.0192177 0.90161836 0.27279294 -0.10449751 -0.8081604 1.5764202 0.3554345 -0.332403 -0.5740874 -0.047462564 -0.718943 2.155298 -0.632875 -0.21784844 -1.137411 -0.031922337 -0.27191147 1.4386506 0.54198605 1.2249126 1.8131709 -0.3233625 0.88529485 0.36324364 0.78869694 0.49818265 0.08753733 0.94834 -1.5045462 0.45306534 -0.68189716 -0.37449265 0.059427563 0.5202333 -0.23268113 0.7130397 -0.34637287 -0.30326203 0.22796614 -0.52246726 -0.9255522 0.48750135 0.26126963 0.18995924 -1.7221773 -1.6705256 -0.7627979 0.9278767 -0.87937546 1.8940693 1.5180807 -1.1721296 -1.0300115 -1.636607 -0.20063052 -1.9999605 0.9811718
疗 0.7718423 0.4598699 -0.14317495 -1.087154 0.13693698 -0.5918979 0.9365396 0.4405898 -0.596521 -0.063146226 -0.37206846 -0.93652683 1.7920245 -0.64250606 1.7801057 -1.2835414 1.0983064 -0.00016756558 0.78083855 -1.319267 -0.011600488 -1.0219525 -1.4392227 -0.44067633 -0.8232555 0.28938603 -1.1638438 -0.25347972 0.8969893 -0.38794112 0.05907881 0.50193214 -0.98900366 -1.5429714 0.9558868 0.81229466 -0.21072665 1.1714272 0.36247513 0.6766933 0.9758672 -2.2532852 1.5441914 -0.12397099 0.2152449 -0.26652867 -0.2338161 -0.28552797 0.57909703 0.05616516 0.7615 1.9022068 0.38455433 -0.76481724 2.3317423 -0.4047445 1.1064453 0.09026902 0.21511593 0.95680255 -0.31155938 -0.82849026 -0.5486726 1.3787178 0.34166607 0.72527146 1.2977533 0.3977703 0.42600462 -0.93849367 0.9305743 -1.3941426 1.5746713 1.3749601 0.77863055 0.49692285 1.3850534 1.2365806 0.62667066 0.891907 -0.3983272 0.73194796 1.2913744 -0.9181381 1.882672 0.9294945 1.7311456 0.031913184 0.8630507 -0.17214459 1.9221137 0.55309457 1.7635193 -1.3970684 -0.35646546 0.6151992 -1.168802 0.51379764 1.1306255 -0.7848416
药 0.8347849 -1.3485305 -0.4424177 -0.43050876 0.5780086 0.082450196 -0.23067178 0.63615876 -0.49413997 -0.40094155 0.31263512 -1.5583899 0.16777912 1.6486447 1.3673701 -0.84848815 0.41200745 0.06838521 1.5756445 0.62315285 0.94632226 -0.8879331 -0.46825445 -0.37044162 -0.8947111 -0.29195118 -0.54251 1.2173448 0.8907934 0.35213536 1.0498948 0.5388472 -0.28448948 0.041855548 0.07519829 0.34431025 -0.7796851 1.227927 1.3432535 -0.7638474 -1.2213327 -0.89430565 1.5733467 0.6777408 -1.0050819 1.0976092 -0.2606255 0.1869566 0.060421098 -0.75879365 -0.3504396 -0.4657577 0.6576289 -0.4559067 0.41422963 0.3769843 0.51633716 0.20929402 1.2494134 -0.09309223 0.7959838 1.4732918 0.9032157 0.36788496 -1.2567053 1.198085 0.99740213 1.3418837 0.023528708 -0.18797427 1.4086888 -0.8450045 0.29448298 0.97148746 1.9421709 0.71703243 -0.5582992 0.9536057 -0.88858706 -1.0937525 -0.26741445 -0.039534137 0.019092167 0.62315804 2.3808038 -0.15387078 0.75215596 0.020953398 -1.0819036 -1.0499356 1.3576033 -0.7551448 1.2438929 0.32512447 -0.05621475 0.4311659 -0.9718157 -0.09244726 1.0415096 -0.6804831
. -1.5091509 0.9020023 -0.7754423 0.32051694 -0.20218034 -0.1389402 0.74577665 -0.28037915 -0.5531543 -1.4845102 0.31056577 -0.048439167 0.452306 0.27087536 0.47616434 -1.0128647 0.3036013 0.46838912 -0.512196 0.043931503 -0.41115347 0.7104437 -0.6303657 -0.85038227 0.24085698 -0.34501407 -0.9754119 -0.29405135 0.075569026 -0.7329672 0.06398333 -1.1521288 1.0513774 -0.18928634 -0.6686398 -0.19467373 0.013276679 0.07883616 0.15572155 0.1418012 -0.090072624 0.1503383 -0.3275339 -0.18839413 0.20431894 0.37865376 -1.0963994 -0.68938917 0.306638 0.008186986 -0.8161301 -0.15178663 -0.443822 0.018832164 0.18816754 1.3094726 0.4812271 -1.1054761 2.2570696 1.3015375 0.8136257 0.19899541 0.1151874 0.09259678 0.49865758 0.95992506 -1.1946595 -0.32199162 -0.5004195 0.58624846 -1.1524904 0.16654085 0.8042877 -0.20725062 0.5322257 -0.73680717 -0.2960117 0.8651459 0.13818143 -0.66913724 -0.95537996 0.0253279 -0.43719602 1.2160246 -0.080370106 0.65996855 0.9802726 -0.46121687 -0.045270953 -1.0629047 0.43061414 0.4081048 -1.0789721 0.66803557 -0.918101 1.2459533 -0.043454126 0.98562336 -0.2894396 0.5235644
治 0.36623716 -0.0061483053 -0.8376526 1.1841264 0.3863218 1.3875804 -1.6238782 0.59638304 0.2531832 0.4198408 0.49425286 -1.6991955 0.37925053 0.7625632 1.0852425 -0.95755625 0.75313395 0.5846092 -0.81206 -0.919001 0.57603985 -0.65105176 -0.61842144 1.4200195 -0.97125006 -0.40273744 0.4554389 0.87186897 0.14501907 0.0028991832 1.1680547 -0.63463104 -0.12333357 0.42683426 -0.4839097 -0.54258597 0.58207977 0.66375536 0.5306725 1.7593733 -0.7894205 -0.7519038 0.2065397 0.8435884 -0.19399026 -0.26851228 -1.4875717 -0.17739473 -0.045088053 0.04378247 -0.14881139 -2.3360178 -0.005132551 -1.7286 -0.9841818 0.39620852 -0.2800452 -0.42715606 0.34137183 -0.61227155 0.40269175 1.2800689 0.8956129 -1.0563079 -3.3783855 1.5140696 -0.7489214 -0.6142438 -0.46563575 0.14364964 0.1601093 -1.0047386 -1.2232212 -0.72498095 0.6637848 2.7198386 0.4049543 1.3377316 -1.0984253 -0.2937023 -1.2897868 -1.2028161 -0.57177013 -0.10779182 0.20775776 0.47282964 0.28948972 -0.809056 -1.3540531 0.8027306 0.14964303 0.533647 -0.028869703 1.6070156 0.44857895 -0.85331786 0.08648194 -1.4142228 -0.5266873 -1.0363714
和 -0.081557356 -0.12112756 0.07643737 -0.42000285 0.005363436 -0.47114533 0.24592742 0.19294842 -0.16344737 -0.109157115 -0.058674496 0.9184366 -0.35790017 0.3975969 0.14818144 -0.29557046 0.19187804 0.8652413 -0.47577992 -0.39836916 -0.44178987 -0.63767195 0.18224952 0.6529965 0.11166167 0.09419412 -0.38415676 -0.47432506 -0.19538684 -0.11794359 0.35231757 0.12080316 -0.26664302 -0.17843443 0.32047746 -0.6968448 -0.09685762 -0.367164 0.22118202 -0.5125641 0.24410623 0.098593935 -0.3477287 -0.5421335 0.13529652 -0.20154247 -0.51640254 0.08492575 0.54736453 0.06948878 0.44001955 0.40291533 -0.7254222 -0.14929445 0.0809999 -0.117305666 0.70126694 0.36955976 -1.0582585 -0.5359984 -0.44845548 -0.10911954 0.44885707 0.11650527 -0.2926545 0.019835642 0.5287247 -0.4105817 -0.10737406 0.21138568 -0.4934184 -0.26062065 0.48784027 0.06411443 0.10547504 -0.45675334 0.46905574 0.17010081 -0.74462 -0.52258223 -0.24112742 0.0062003867 -0.4033353 0.6936448 -0.46744215 0.20253263 0.14438115 -0.018145815 0.060941044 -0.4774893 -0.42622146 -0.06571887 -0.30082154 -0.4290084 0.18056923 -0.47362733 0.81388634 -0.6110324 -0.7322041 -0.0881553
胰 1.2178962 -0.008285471 -0.5673613 1.0297942 0.92530435 -0.036358997 -1.589483 0.7268799 0.19528879 0.31304598 -0.6686628 -0.5444547 0.41128454 1.1583929 0.953322 0.7498727 -0.59093803 1.3798252 0.8805484 0.039905034 1.5087714 0.92168725 -1.4901625 1.3107154 0.45447907 0.8017821 -1.4061002 1.553365 1.7132021 0.9687364 -0.3259585 -0.06420756 -0.036632795 -0.8218865 0.7928278 2.3888223 1.9443781 -0.32067674 -0.6198838 1.6432937 0.08082375 -2.8314924 -0.5797271 -0.105633356 -0.9625985 -0.06306832 0.13519253 -1.0797496 0.9913434 -0.9910304 1.1416029 -0.5328566 0.5234274 -0.19468722 2.0153346 0.17902662 -0.14601745 -1.381538 -0.31366664 -0.5436755 0.08772739 0.11531013 0.99473405 0.95995164 0.09930229 0.86095285 1.1360332 0.25895888 -0.99872667 -0.044177465 -0.08717669 -1.6877725 0.84965914 -0.7148168 -0.17097919 1.3445266 -0.3906168 0.51778674 -0.22078618 1.2026986 -0.040351562 0.8872908 0.3407716 0.10813363 0.40057424 0.45738885 0.51821923 -0.9181477 -0.75208545 -0.6667755 0.7832824 -0.65851647 0.6510611 0.78396714 -0.33113387 -1.8739817 -1.4478408 0.22409248 -1.1740835 1.1618556
D -0.11049966 -0.6294233 0.70714545 -0.8120019 1.1805696 -0.2617714 0.0688996 0.488262 0.3509829 -2.3930953 0.2638081 -0.4973002 -0.37098372 0.86383015 0.5158142 1.1060075 0.91218716 -0.52873284 -1.0151857 -1.1936313 -0.44674557 -0.3332294 -0.55316216 -1.0090628 -0.7833272 0.09221575 -0.5596968 0.2096851 -0.17359483 -0.25274163 -0.48109263 -1.2522013 0.8790579 -1.800613 -0.42157188 0.1370274 1.6194767 0.51794 -1.3788371 3.019749 1.1066712 0.6230598 0.4751344 -0.018943999 1.366112 -1.4115629 -0.27181646 -0.78637505 1.0395974 0.45050228 -0.7175002 -0.012164285 0.33798477 1.111778 -0.2385573 1.4620516 0.16708791 0.44473332 1.0391306 0.05199548 -0.74329257 -0.45291054 0.3740626 1.7785283 -0.32644096 0.5014037 0.23292899 -1.8398511 1.2834678 0.14129534 0.26443663 -0.054753657 -1.4020625 0.032010633 0.8539192 -0.3991812 0.44107026 -1.0965974 0.1253883 -0.79447955 0.17034778 0.9004911 0.111060806 1.1849124 -0.42543352 1.2413737 -0.007561916 0.37999898 -0.28385913 2.3899994 1.9367939 -0.16243304 0.30523372 0.8974293 -0.25776437 1.3906704 0.3618254 0.42672995 0.35161644 -0.6603458
性 -0.13306801 -0.54808486 0.20225035 -0.23627813 -0.36377883 -0.046281822 0.48829177 0.49878556 -0.4818907 -1.3321484 0.05441598 0.3486318 -0.2613793 0.9735258 -0.0005559926 0.5417574 -1.3931333 2.1074736 -0.12681353 0.18335736 -0.4543121 -1.0497841 0.58341515 0.99073356 -0.19563214 0.0063265706 -0.55497015 -0.18643267 -0.6136828 -0.7450559 -0.8670636 1.1472484 -0.39195985 0.2493779 0.7792028 0.061936267 -0.8565861 -0.1841748 -0.1031771 0.42954966 0.1887363 0.8716486 0.08557982 -0.20440376 0.3997696 -0.8093261 0.3266079 -0.036197092 -0.00082431064 0.14497975 0.7342285 1.3430129 0.19568406 -0.39916027 0.36479074 0.082623556 0.3200277 1.2739793 -0.4709343 -0.5049606 0.7920131 -0.8892149 0.3384772 1.1404818 -0.2043881 -0.19752671 1.2105796 -0.14589453 -0.31008 0.82318187 -0.5342711 -0.5478485 0.1253567 -0.019351482 0.7104342 1.2807056 0.67900395 0.21936412 -0.267979 0.5042622 -0.17705475 -0.13100685 -0.5669004 0.39336848 -1.5871322 -0.66140103 0.4098858 0.058282595 1.4888725 0.23871295 0.36806 0.11342592 -0.1828029 0.7524568 -0.38319853 0.33472666 0.4176961 -0.48990947 0.25732106 0.23681454
岛 1.7216539 0.32660535 -0.89197844 -0.23837754 0.60250235 1.0198855 -1.9584264 0.59631455 1.0975176 0.75067645 -0.6365601 0.6696453 0.2907683 0.21125075 -0.6693621 0.4999359 1.0339867 1.8987386 -0.43920326 -0.93628126 0.4847464 0.48444328 -1.6565392 -0.8648183 0.068512335 0.16450632 -1.4983739 1.1944966 1.2465715 1.3268996 0.18287097 -0.923628 -0.05183608 -0.33292347 0.0978683 2.159866 1.0830469 -0.022321902 0.47400975 0.55041844 -0.7840397 -2.7119257 0.6333905 0.24557859 -0.97190404 -0.87561584 0.18412477 -1.3156909 0.7888248 -0.34907705 0.21656173 -0.69277734 0.576414 -1.2196147 1.9677628 -0.3976405 -0.5670138 -0.51900226 -0.59366304 0.42725262 1.579403 -0.38094774 0.8410138 1.0849314 -0.22728817 0.81692106 2.331191 -0.20835793 -1.4962729 -1.0254364 -0.4641684 -2.2762287 -0.30598608 -0.6757404 0.68987346 0.846367 -0.7962316 1.0427835 -0.2845198 0.8345179 0.60726947 1.8391864 -0.35253546 1.4362904 0.2093591 0.18283236 0.80717635 -0.30993402 -1.5107589 0.18260832 0.07706678 -0.84317076 1.8836126 0.7992744 -0.29504085 -0.90113235 -2.3070755 0.7143017 -1.421171 0.54414797
可 0.521168 0.42775092 -0.49537775 0.15842149 1.07853 0.3696879 0.044625815 -0.14909312 -0.27467614 -0.10442517 1.2210176 -0.721841 0.40824023 0.5682424 -0.5383917 0.6635806 1.6453999 -0.6430686 -0.07365121 -0.6447386 0.16466765 -0.024294911 0.07222063 -0.5550826 -0.0014484844 0.17414325 -1.2734408 0.9016972 0.75286454 0.71846086 0.5078372 0.17902282 -0.40898064 -0.2375192 -0.0025907059 0.006918401 -0.03708965 -0.5142635 0.3157815 -0.24958871 -1.9394401 -0.51347613 0.07259415 1.3218445 0.14248663 0.46131346 0.5170785 0.0040531238 -0.78362864 0.24715781 -0.12220011 -0.623261 0.39694455 0.085573494 1.0581963 -0.7455465 0.55740726 0.44061404 -1.2370294 -0.45906335 0.10631801 -0.5265729 -0.59608746 0.93075943 -0.034319162 0.24482548 -0.31639433 0.34985933 -0.024266966 -0.03241288 -0.44556108 -0.08378411 0.28002086 -0.19437398 -0.06482653 0.5143063 -0.60063124 -0.073677495 -0.8537376 0.6497267 -0.6076006 0.6750907 -0.15975043 0.94831085 0.36560866 -0.06970196 0.35058463 0.29413494 -0.3418135 1.32637 0.8048986 -0.025388166 -0.060455963 -0.18920939 0.18432623 0.18604761 -0.90558225 -0.24763058 0.40205163 -0.57833165
制 1.9019706 0.19136478 -1.7338556 -0.25665992 2.7602549 0.4226166 0.76826715 -0.68338996 0.7304456 0.37469515 0.85094315 -1.8188857 -0.4461468 0.96838653 -0.752551 -0.9782493 1.693571 0.5464437 -1.5345626 0.15882269 -2.394022 0.26106122 0.19413112 0.6750042 -1.0911514 -1.7795084 -2.099991 -0.34084305 -0.9075444 0.14822829 0.5280096 -0.8759202 -0.7248317 -1.802653 -1.3597587 -0.9049752 -1.3004321 1.2239218 0.39453343 0.25583667 -0.81020516 -0.9877167 -0.8314742 -0.5821628 -0.81040156 -0.11609016 -0.44373637 -0.07215418 0.5967442 1.0710546 0.5558541 -1.0058168 1.9233514 -1.6430404 0.4344834 -1.1798149 1.646831 0.93347603 0.16473645 1.3632904 -0.48357424 -2.1710482 1.2166156 1.3132491 -1.1132071 0.70758677 -0.9764911 -0.438271 0.077758886 -1.3661852 0.48772982 -0.83313227 0.6267943 -1.6629546 0.08070901 -0.8227539 -0.08240244 -1.8142148 0.28554252 -1.3112698 -0.70840466 -0.77703255 0.7512496 0.13440873 1.1273786 -2.5627546 0.016933544 -0.9678261 1.1866759 0.6612459 0.8996691 0.33759993 0.08289777 0.5245097 0.092483886 0.85773015 -0.07703645 0.78235656 -0.9204772 -0.87030935
物 0.21748024 -0.08642443 -0.93006146 0.6692991 0.2929107 0.45958892 0.053279765 -0.30704594 0.61807156 1.2422795 0.6450037 -0.64948905 0.3456706 1.910607 0.7208643 0.21728091 0.37306005 -1.0638818 -0.06007105 -0.5451497 0.17932905 -0.45530793 -0.30312684 0.85890746 -1.3807272 -0.005465002 -0.40585932 0.22567025 0.8810565 0.9002035 0.5369566 1.2419592 0.7268125 -1.1138524 -0.33441812 0.8948682 -0.44213578 0.77311194 -0.450062 0.6632862 -1.8408481 -0.09411423 1.2167064 0.030167885 0.05217028 1.9127783 -0.42230895 -0.21884564 -0.2009541 1.2742912 -0.29249656 0.52046925 0.47346446 0.65636206 0.4175633 -1.2339567 0.24407758 -0.8505521 0.018052503 0.92197365 1.3207217 -0.5604983 0.30982843 0.187833 -2.2671258 -0.51990783 0.6011088 -0.18838991 0.35622013 0.09746082 0.8815909 -1.6270548 1.1756772 0.54381335 1.0082098 0.5210118 0.7784866 1.5695107 -1.2483025 -0.4617986 0.30882558 -1.1379615 -1.3084258 0.54221773 0.6398676 -0.42046914 0.40740746 0.20094699 -0.91454625 -1.2611552 0.6054627 1.1187183 0.6425788 -0.001693653 -0.3420563 -0.8813867 -1.4827043 0.3895612 0.525015 0.21207705
降 -0.22232485 -0.97364604 -1.1572571 -0.06875614 1.7581563 0.65780836 0.42647204 -0.20974459 -0.078998715 0.041015312 0.5673545 -1.3609895 0.77582955 1.7739879 0.6730514 -0.79424626 0.7919427 -0.72995526 -0.7160569 0.3333977 0.22379096 -0.03465258 0.5438823 0.52017665 0.58980685 0.55747914 -1.0884587 1.242445 -0.51126057 0.68782306 0.69254285 0.8532355 0.6001108 -1.4293789 0.55704105 -1.4275194 -0.8504842 -0.027892996 1.3110385 1.2683551 -2.0396318 -0.9321338 0.9112695 1.3017911 0.012446114 0.5012011 0.08907841 1.2444661 -0.43921527 -0.090844065 1.1466963 -0.7362316 -0.062178183 0.49640578 1.325739 -0.6795412 0.107957035 -0.28254464 1.6545336 0.33465603 0.981187 -0.57316333 1.0013338 1.5604697 -0.06881968 0.4749591 -0.25344718 0.72353894 0.38696185 0.5331148 -0.05167605 -0.43856755 1.2467543 0.029448105 0.8459838 -0.9551518 0.20396951 2.437886 -0.24888109 0.082224905 -2.1613994 -0.88177174 -0.8367708 0.53841025 -0.102200076 0.5052674 1.596796 -0.28493163 -1.2601 -0.28770828 1.157224 0.55873907 1.0557822 0.23569824 -0.12932271 0.67688394 0.67734444 0.0036297205 0.18584913 0.22215307
在 -0.208865 -0.008753663 0.38810584 0.54653746 -0.289621 -0.030176759 0.75984013 0.549003 -0.15287781 -0.52053094 0.77299875 -0.14217284 0.08514068 0.46865442 0.29054448 -0.469046 0.18923914 -0.38112023 0.36350057 -0.062306833 -0.29646754 0.026805937 -0.55711555 0.21396047 -0.23829721 -0.1491399 -0.3810203 0.76823026 0.39235997 0.5709118 0.2666753 -0.32729697 0.4303717 -0.2201401 0.0033303625 0.011979761 0.22163269 0.31734452 -0.1289219 0.3387914 0.05198085 -0.5719824 -0.20095113 -0.23026969 -0.5993329 0.15602286 0.52667105 -0.169654 0.14721666 -0.033489004 -0.073247 -0.36776745 0.13459963 -0.23437807 -0.45420974 0.61345375 0.45046702 0.7308153 0.45817786 0.4467546 0.10880901 -0.5547818 0.4321775 0.4962169 0.35281473 0.004419306 -0.08738038 -0.21452674 0.4475077 -0.069018155 0.5861779 -0.6473788 -0.14947776 0.21895833 0.70343375 -0.20492026 0.21853624 0.6648403 -0.00027008832 -0.15522912 -0.17101358 0.3355125 0.06443294 -0.3538941 -0.119507134 0.22580683 0.16042744 -0.9955089 0.5959226 0.7373359 0.79017943 -0.43785012 -0.48280692 0.005345649 0.2572721 0.5840903 -0.88663626 -0.6462121 0.01267509 0.39535445
不 -0.02012745 0.39986786 0.083875306 -0.67823845 1.4937183 -0.44635397 0.19213453 -0.37589896 0.28100038 -0.26812714 1.5770632 -0.5288018 0.6030413 1.1165491 0.23484398 0.06085933 1.0051485 0.06143251 -0.22326232 -0.19513905 -0.28745687 -0.20233403 0.49543503 -0.3683578 0.05351046 0.4517989 -0.93432534 0.6243239 0.70682794 1.0470405 0.35150555 0.30514637 0.43742332 -0.44444937 -0.040316522 0.75339735 -0.8386135 -0.8385625 0.4542919 -0.23332025 -0.676521 -0.82173014 0.9869843 -0.12845866 0.21772137 0.6723265 0.88848174 -0.56528723 -1.0553749 0.30598608 0.5079293 -0.69986403 1.1310108 -0.09166673 -0.21251498 0.09878022 0.6475052 1.60016 0.3927076 1.1842991 1.0151377 -1.2099024 -0.22860283 0.7020196 -0.05465437 -0.7558653 -0.37453225 0.09661441 0.7196406 0.5538312 0.010247064 -0.66523945 -0.17986424 0.26974973 1.2287959 0.6654096 -0.32530722 -0.7741945 0.3316078 0.7909325 0.3676352 0.5739777 -0.3920311 0.3158383 0.5725625 -0.049701132 0.11701898 -0.83378226 0.69928676 1.2708973 1.2914847 -0.35518137 -0.059926514 -0.45949656 1.0669042 0.27034426 -1.3404187 -1.1231256 0.34282455 -0.9413486
剂 1.3722428 -0.8669569 -1.4812771 0.8623872 0.9600214 0.4592567 -2.6358407 1.1658038 1.6578269 -0.19004968 1.107883 -0.6065085 -0.72663146 1.262006 1.8668809 1.2190332 -1.0696534 0.8067057 1.1596096 -0.72664756 -0.26872486 0.93187016 -1.6517073 -0.7461423 -0.37104094 0.39082858 -0.67279863 1.0580702 1.9281011 1.5831969 0.005270801 -1.1467137 0.3261673 0.43480882 -0.23676682 0.8938717 0.24408782 -0.8083861 0.8779773 0.3528091 -0.75005907 -1.4348788 0.820941 -0.242479 0.22810312 1.1925942 0.5711705 -0.89596575 -0.72217184 0.8218933 -0.2792306 -0.67175025 0.37505266 -0.2235426 2.9793546 -0.2612152 0.26533562 -0.863425 -0.5879508 0.6415487 -0.4605051 1.3043512 -0.4643463 0.67813575 0.17886586 0.21560225 0.60014844 0.7712603 -0.8472621 -0.113782994 0.49395558 -1.5082529 0.6367204 -0.6659654 -0.19959849 -0.49111292 -0.25366998 1.1006954 0.2693202 -0.7848606 1.0682607 -0.51277703 -0.92696726 1.1983055 2.0484862 0.8504588 -0.110812396 -0.3039733 -0.4936031 -0.15818067 -0.27325836 -0.1683077 0.09984552 0.26272705 -0.5025821 0.3609638 -1.9424249 0.9110868 0.83077556 0.045489587
中 -0.08816024 -0.27916998 -0.41776684 -0.29594654 -0.16064674 0.0075769797 0.38176525 1.4656905 -0.1203996 -0.19118997 -0.20019613 0.5685971 -0.1326395 0.44951153 0.20241955 -0.7929231 0.29219076 -0.800978 0.92841685 -0.5954013 -0.6843965 -0.0072428817 -0.8339613 0.19629748 -0.3055427 -0.79258066 -0.1555709 0.48667943 0.10663701 -0.22065698 0.4749279 0.6655494 -0.20434013 -0.106696285 0.17349158 0.89785093 -0.4779044 0.17766036 0.06682734 0.5721213 0.017701067 -0.73016167 -0.36450386 -0.17060441 -0.010031862 0.35760605 -0.019653982 0.124080114 -0.046013907 0.30070508 -0.59955204 1.3765919 -0.040028445 0.45569158 -0.51760185 1.0012312 0.079073586 0.27519253 0.1763364 0.56251484 -0.37600377 -0.14217308 0.5767773 0.22393051 -0.2467852 0.37439388 0.47574317 -1.062202 -0.18812445 0.33848804 0.72817904 0.19023068 -0.8367349 0.10196494 1.3610095 -1.0615814 1.1873083 0.24591738 -0.0676032 -0.19960947 0.060567133 0.036774695 0.30894622 -0.33190814 -0.43810585 -0.0045150905 0.20755303 -0.6033635 0.7275936 0.678232 0.26872507 -0.29944623 -0.060292818 0.02923095 -0.5173372 -0.0015361788 -0.40129164 -0.68880826 0.63726914 0.56865436
合 1.161942 -0.88791543 -0.7319045 -1.4924798 -1.086387 -0.0924479 -0.18057293 1.0547152 0.56816894 -1.2330312 1.8126955 0.07496844 1.116654 1.9477718 0.79750526 -0.13572416 0.103973985 0.50915766 -1.4827709 -0.82039446 1.4354376 -0.39289346 -0.07409922 0.570007 -1.3746872 -2.3457456 -0.011156698 -0.1321727 0.62170106 -0.15310982 -0.9771895 0.15215631 0.15208228 -2.6336577 0.08004186 -0.44194055 -0.91206837 -0.72187376 0.2911358 1.2489445 0.5893604 0.044950005 1.4406341 0.13438697 1.3911381 0.82157636 0.24924913 0.71420205 0.59903973 0.06465846 -1.6335629 -0.3059917 -0.3701242 -0.16110656 0.6939393 0.42243263 0.6284041 0.46538183 2.0043626 -1.1119639 0.301889 0.15196817 1.015479 0.5901435 -0.9330553 2.0032475 -0.9679316 -0.18081434 -0.8174949 -0.4055505 1.4800749 -0.71504027 0.08673314 0.031878125 2.2199426 1.1740155 -0.03832149 -0.93748283 -1.4615564 0.9153015 -0.60601115 0.35877177 -0.95868087 1.7354126 2.35538 -0.2691257 0.8041597 0.46070564 -0.90553254 0.39496574 -0.25356275 -0.65679145 1.298588 0.25006813 -0.122224845 0.41154322 -0.22556013 -1.2153503 -1.0995325 0.16421783
发 -0.2607714 0.4929692 1.1765094 0.27508578 -0.83984494 -0.17633453 0.70357406 -0.0018305385 -0.98902154 -2.1340015 0.94493216 -0.13504995 1.1089551 0.7722118 -0.2161168 -1.1702058 -0.6634771 -0.38147196 -0.7959287 0.78596526 -0.31688333 0.34683412 0.8662828 -0.56295794 0.008269079 -0.39237738 0.6018743 0.1695664 -2.032831 -0.44079217 -0.6779469 0.6759462 0.72624844 -1.0469079 1.0761015 -1.1897403 -1.5193467 -0.62030226 -1.5679561 0.7406947 -0.8447919 -0.0056347745 -0.8735551 1.2613643 0.1609945 1.1166945 0.94457304 -0.8101698 0.7181317 1.6211578 0.35585973 1.281358 -2.272848 0.55590516 1.0737399 0.12549827 -0.73307496 0.68761563 -0.51397276 0.01869529 -0.7527547 0.74790347 0.72660184 1.3883859 -1.3976123 1.209991 0.9991504 -1.0025216 -0.4805423 1.0078796 1.215623 0.6007972 0.73307014 0.4354641 0.145402 1.0854285 0.798838 -1.1051043 -0.65330654 0.85800576 -1.8728838 0.074655 -0.34426275 0.34046575 -0.391215 0.11600397 -0.35533956 0.11559828 1.6014736 0.7478175 0.8384923 1.0160475 0.804009 1.0552794 -1.9547611 0.35457423 0.8693793 1.1034564 -0.6863279 -0.27191764
A -1.4303126 0.51625615 0.19372554 -0.7311774 1.6551487 0.6575747 0.455598 0.2768131 0.09878668 -1.0376112 0.58217716 -0.80180436 -0.056037933 0.23753595 -0.5933636 1.1612141 0.3853413 -1.2725567 -1.7880493 0.20771943 -0.833055 0.044950873 -0.6133135 -0.37609434 0.1944385 1.0656993 -0.7051003 -0.35414386 0.013685533 -0.80248404 -1.1315073 -1.1696646 1.5179846 -1.9605565 -1.1524462 -0.0046550273 1.1816776 0.6894587 -0.38182184 1.7984035 0.799001 0.38280967 0.24624135 1.3050587 1.4035099 -1.7298185 -0.39841357 -0.29858264 0.47396564 0.057222277 -0.6989909 0.20777692 -0.8134288 0.5048338 0.5333592 0.4650563 -0.59646285 0.15631625 1.7364988 -0.40595663 0.17290162 -0.38139758 1.2664154 0.902338 -0.6620573 -1.0171385 -0.7238856 -0.3047365 0.20827375 0.2517498 -1.0606221 0.04544085 0.2194718 1.3790796 0.8461003 -0.0021089774 0.23585825 -0.7866688 0.06395517 0.08881038 -0.07554215 0.19307968 1.2128255 1.373299 -0.43240148 1.3637244 0.31333965 0.8334488 -0.8205156 1.7888253 0.31824175 -0.13740687 0.580877 0.9459352 0.7826939 0.8301474 1.0442138 0.880895 -0.77100754 -0.74841255
有 -0.15782765 0.20645325 0.287873 -0.7511667 1.1294038 -0.25350636 0.69866043 0.41354212 -0.3622342 -0.6855142 1.1027356 -1.3099151 0.29058492 0.7428333 -0.10702419 0.7040485 0.15535632 0.5973858 -0.22963744 0.8076279 -0.02753207 0.5653633 0.045293465 -0.6216815 -0.32837 0.29010978 -0.33184397 -0.38303068 -0.3626197 0.12347397 0.21243629 0.48483744 -0.23364057 -1.0890099 0.2281827 -0.05833581 -1.895996 -0.37529892 0.30899307 -0.51527274 -0.27274853 -0.34299052 0.72150904 0.06691183 -0.8288898 0.5567046 0.36332527 0.37954146 -1.1833179 0.21321772 1.0493455 0.019476507 -0.01586553 0.15030599 0.33551422 -0.37073687 0.52225846 1.252288 -0.35999846 0.3098167 0.18679127 -0.5412583 -0.08329719 1.4283617 0.16369613 0.23839042 0.4754372 -0.015535632 0.45984143 0.24090701 0.053669464 -0.1513158 0.58174926 -0.47969466 1.7540617 -0.4545219 0.766527 -0.12453899 -0.39992526 0.75188625 -0.8135086 0.53131664 -0.6494384 -0.4927886 -0.12923005 -0.8328827 0.23948759 -0.52425045 0.7141728 -0.06940479 0.73541737 -0.2802311 0.0066521917 -0.69113946 0.44985825 0.30067402 -0.7470404 -0.34468225 1.1147573 -0.22240482
能 -1.0652438 -0.5168957 -0.8149509 -0.02141223 1.1366329 0.71299595 -0.06791616 0.21225838 0.62956387 -0.46989053 0.44785818 -0.7416377 -0.5787213 -0.055089634 -1.0323579 0.3396238 -1.3412508 0.10266182 0.8206929 -0.33125624 1.1452295 -0.43225783 0.5832441 -0.13846679 0.52594346 0.772019 -0.76550776 -1.0603678 1.1117792 1.3304801 -0.3020873 -0.4506742 1.5341716 -0.50875616 0.5326535 0.19376677 -0.3651778 -0.9532065 0.35140643 -0.45145902 -0.4432699 -0.72096694 0.9994266 0.28524992 1.0037035 -0.61623955 0.5334942 -0.36847365 0.31740552 -0.20974536 0.62114805 0.2136798 2.0382478 -1.073979 0.30204746 -0.90392494 0.03415378 0.83894736 -0.6052372 0.93376726 -0.18342069 -0.4755842 -0.06409717 0.15948634 -0.21560659 -1.6079328 0.22947215 1.034347 -0.55898166 1.2363876 -0.970048 -0.67266023 0.11694008 0.038916882 -0.81229955 1.3406624 0.29001135 0.2908825 0.35977867 1.2688512 -0.68808895 -0.48914507 0.8433108 0.38689882 0.14999048 -0.23543513 0.8830005 -1.2839718 0.41831192 1.2964113 -0.62695545 -0.08586852 -1.4049672 0.52446604 -0.3985477 0.47189093 -0.70372003 -2.8774607 0.33182162 0.021915086
低 -0.42091408 0.29580328 -1.8115156 -0.074841544 0.9885498 -0.19256765 0.2909101 -1.2243732 -0.6925761 -0.7564937 1.5264002 -0.29488432 0.6424852 0.15991719 0.43706715 -0.67008793 1.2596253 -0.11581882 -0.487083 1.4587686 -0.0315641 -0.09084412 0.71793467 -0.39307 0.34475848 0.8523944 -1.2099729 -0.045500312 -0.4251676 -1.3730785 -0.07273574 -1.0830545 0.9568417 0.15256561 0.93287617 -0.33571857 0.018463003 -0.08253886 -0.6713666 0.9671909 -2.2944431 -0.20307064 -0.22273062 1.7259152 -1.3623561 0.26545188 1.1158473 -0.4178876 0.340277 1.4032825 0.043884534 1.0181128 -0.0064246254 0.31382546 1.1900514 0.07335638 -0.24957085 -0.023433995 0.17759643 0.11746265 0.023704462 0.17573349 0.089015074 1.9424039 -1.120934 0.5122614 0.53900754 0.47851834 -0.36600417 1.7086267 -0.7277554 -0.20516324 1.0584916 -0.28285012 -0.12954564 0.19452143 0.24052058 0.39200693 -2.0125806 0.11936568 -1.5579426 -0.17671816 -0.2735792 0.29052 -0.2045526 0.5053644 0.7342902 -1.1575677 -0.9230187 -0.026305227 0.056204136 0.059315737 -0.19159867 1.1992476 -0.27337366 1.0855658 -0.34579802 1.4377497 0.3100631 -1.4775796
m -2.456958 -0.13923539 -1.6570859 0.7617587 -0.1328199 -1.88282 -0.2691033 0.0033342629 -0.48634496 -0.50109386 -1.3565528 0.50788885 -0.90873694 -0.5391432 0.7481416 -1.1103895 0.067333184 -1.5116922 0.089852415 -0.6816159 -0.6429185 1.5543734 -0.5681357 -0.94309944 0.88997364 0.37560648 -1.4130925 -0.09802036 -0.14151609 -0.946744 1.42797 -1.8164604 1.2054332 0.5100212 -1.8644079 1.5213878 0.9620764 0.16912982 -0.2782681 -0.1581952 -0.43785277 0.3554387 -0.9713424 0.09444247 -0.19008435 1.2660251 -2.3444302 -0.7548301 0.39517197 -0.16363546 -0.38487798 -0.27852416 0.47254923 0.91078514 1.974262 2.5327 -0.20205662 -2.4699762 1.5772487 0.96242476 -0.21630487 0.1098644 -0.80553144 -0.8668551 0.80336887 0.83865714 -2.5236838 -0.018605111 0.17655692 0.59649545 -2.456659 1.8268846 0.99416333 0.9196307 -0.76869595 -0.78232026 -1.4123936 1.8437378 0.59656286 -1.0125854 -1.0676329 1.087457 -0.9617867 2.9186985 -0.095956355 1.4988974 0.79696095 0.7075606 -0.37093088 -0.01889142 0.84864354 1.059784 0.51632273 -0.025217349 0.68845236 1.6809162 0.19137408 1.5634253 -0.6540419 -1.4499046
应 0.43794626 0.8606288 -0.3475645 0.3881297 1.0190942 -0.18075782 -0.49834535 -0.09804096 -0.50706476 0.21827708 0.27805483 -1.3388007 0.46018827 1.0834821 0.48158836 -0.31151217 0.6388637 -0.10651144 -0.4231772 -0.43056503 -0.1502234 0.8893532 0.9133409 -0.6866133 -0.13725242 -0.6100024 0.38717633 0.9815962 0.13292156 0.7857572 0.6394212 0.52372795 0.28639764 -0.37179247 -0.3339123 0.8056429 -0.0135707855 -0.54540944 0.17816818 -1.0978172 -1.4352837 -0.75833756 -0.042002037 0.049928416 -0.61474884 -0.48333943 1.4532576 -0.056228094 0.17787023 -0.5893622 -0.3878833 -0.11500495 -0.14086378 0.58584124 0.79219604 -0.18938245 1.4202641 0.58327746 -1.0249213 1.2729261 1.3112189 -0.2876308 -0.1346347 0.05283229 -0.42910787 -0.23737723 0.5783429 -0.099262334 0.12962966 0.40196553 1.0759969 -0.3417583 -0.2737515 0.8878739 0.4122936 0.41493282 -0.6074435 -1.1620418 -0.29268813 0.06711216 1.191428 0.64497685 -0.41472194 -0.39609414 0.89040476 -0.27968976 -0.61723644 0.14619294 -0.8320027 -0.3737746 0.7574063 -1.1342474 0.8939187 -0.33063617 0.15096638 -0.47933358 -0.94716084 -0.42066148 1.3023846 -1.0698413
管 0.80420864 -1.3919085 -1.0401345 -2.8084114 0.9936479 0.4682851 1.2702308 -0.627348 -0.25739947 0.2672656 1.0094812 1.2282457 -0.2135049 0.11370861 0.19725814 -0.91733414 0.96622497 1.3722888 -0.85982233 -1.0798055 0.17806341 -1.1626278 1.1938852 -0.22950694 -0.057656355 -0.47653428 1.7523978 -0.7875979 -1.2025297 -1.5464531 1.1786642 -0.460498 0.022886004 -1.3152466 2.4448168 -0.0037556973 -0.15783446 -0.6729855 0.37849966 0.26468447 0.49511582 -0.27514344 0.18650395 0.13622023 0.13129425 -1.4399667 0.2615646 0.93918556 0.29878086 1.659888 -0.6286921 1.2206802 -0.1419328 0.67354774 -2.2810807 0.81423825 1.2210698 1.0328798 0.3590697 0.6632884 1.0760016 -0.36249983 1.7870194 1.3876201 -1.191166 1.4481623 0.4812823 0.39454564 -2.328515 0.42378503 -0.28333303 0.98090684 -0.019131903 0.14983588 1.6037849 0.23362517 0.45806813 -1.0371101 -1.1276344 -0.06330276 0.188088 0.21310337 -1.6182843 0.06673393 -1.109505 -0.33722797 0.072123386 -1.2652019 -0.05031725 -1.3763211 -1.2697251 -0.18106362 -0.48602563 1.2035307 0.10037795 -0.26597914 0.061462022 0.1584008 -0.57704437 -0.7110708
P -0.10934249 -1.2808905 -1.1123483 -0.6401693 2.9316843 -0.84997433 0.31429538 0.014259502 1.2063876 -1.7475501 1.1150147 -1.3237677 -0.57027555 0.61304843 0.12576456 1.3972913 -0.20220876 0.43259886 -2.0840738 0.49821562 -0.6970184 0.15148999 -1.2834754 -0.8164011 0.6929517 -0.8478571 -0.5088983 -0.61978996 0.18289156 0.037070993 -1.0086893 -1.1220523 1.2249588 -0.43209922 -1.3669684 -0.3188599 0.349324 -0.22468789 -1.2341363 1.819023 0.056705106 0.9640621 -0.10478712 0.44401392 0.6910385 -0.807184 0.15925473 -0.8022217 -0.09807662 0.39800376 0.12437654 -2.252934 0.58824545 1.1454135 1.6142578 0.8604091 1.0489862 -1.4166989 1.2984476 0.23756932 -0.3878283 0.051561236 0.5070049 0.30079666 -0.11160802 0.9015055 -1.350093 -0.6211937 0.9059732 -0.9611736 -0.25150344 -1.2346251 0.5521517 -0.16703995 -0.60509485 -1.2570028 -0.30182874 -0.8468574 -0.58189124 -1.8316265 -0.17775999 0.50304353 0.24906726 0.63959175 0.16310348 2.0000956 0.24400759 0.43035594 -0.22812028 0.8596933 1.206807 0.47196662 -0.37159258 1.3541234 0.92189467 1.7516124 -1.1198571 1.6119766 0.3936423 -0.888087
3 -1.8328391 -0.3990685 0.103403345 1.7110435 -0.42993358 -0.86595297 0.19109456 -0.51817733 -1.0289005 -0.89200383 -0.710095 -0.2596702 -0.11234143 -0.19308119 1.0559871 -0.3423939 -0.31148118 -0.086115584 -0.34996644 -0.51956886 -0.31765708 1.4177018 -0.9320051 -0.39760497 0.88377196 -0.36414418 -1.1234734 0.39154306 -0.47530812 -1.2038829 0.06094108 -0.5253393 0.9468242 0.44232967 -0.82160956 0.8790835 0.45937985 0.58369875 -0.58970064 0.31786904 0.5371956 -0.0014926591 -0.35008046 0.56195253 0.33896002 -0.035545602 -0.50297576 -0.73737836 0.60433877 -0.13858162 -0.7718399 -0.35079303 -0.30192462 0.2319008 0.25663012 0.38563633 -0.05383286 -1.8413554 2.617514 1.1437182 0.62809306 0.40429693 0.259183 -0.68533444 0.09890172 1.0537592 -1.0204992 0.069794625 -0.4052047 0.09861571 -1.0587533 0.4967198 0.25084198 0.4211389 -0.036650516 0.09178897 -0.8489416 0.43400085 0.6663576 -0.6514678 -0.61533046 0.22825801 0.3298268 1.8431611 0.08317997 0.46342632 0.0723721 -0.054534663 -0.63818204 -0.523122 0.22924688 0.21438672 -0.6942138 0.52119446 -0.38574284 1.4564341 -0.6428056 1.3014829 0.24476855 0.065294765
重 0.54407793 1.0594532 -0.5016007 -0.31757015 1.6294833 -1.036822 0.5412029 0.77036613 -0.47020045 -0.32110316 0.11119606 1.5966733 0.46340737 -0.88379943 0.5257685 -0.6620922 -0.0061870627 -0.26913851 0.296638 0.06829063 -0.05423941 -0.5289719 1.0116096 -0.78062946 0.87114054 -2.0098917 -0.4981862 0.23548463 -0.5789852 0.3624779 0.8419024 -0.32313034 2.5429265 1.9631462 0.5930987 1.1107372 0.16910504 -0.55168146 -2.7828064 1.473436 -0.3952564 0.54363173 0.85929364 1.201802 -0.129634 0.61241204 0.77998763 0.42716524 -0.49219114 -0.2524917 0.8684785 -0.794636 0.41068283 -0.044540346 -0.083743185 -0.9967432 -0.07486273 1.5128678 0.32505277 -1.1085241 0.7260653 -0.46099222 0.2646793 0.6150478 0.4846175 0.38346204 0.98972625 0.19962181 -2.1775105 0.8288794 -0.15792927 -0.16601823 -0.30616072 -0.9866017 0.14967565 -0.72297317 0.260854 -1.2593651 -0.9557197 -0.5081265 -1.2108924 -0.22697617 -1.286648 -0.06561161 -0.24649738 0.04694039 0.24855639 0.43984202 1.5929544 1.1194077 0.55817276 0.39697453 -1.0391191 -0.08891885 -0.3781461 -0.139787 0.7716079 -0.5280889 0.33060667 -2.6174078
为 -0.36873674 -0.4724411 0.23672791 0.69461143 -0.23009866 0.6516433 0.7648348 1.0582867 -0.40445665 -1.1188112 0.6810507 -0.3186475 0.5786572 1.2176028 -0.8647984 -0.14350682 0.2409688 -0.40822768 -0.57430005 -0.5863407 0.39679983 -0.21925 -0.82128656 -0.16340479 0.54191023 -0.86186445 -1.1713492 -0.17228791 -0.45414463 0.46588662 0.5738331 0.12869462 -0.15097596 -0.73475504 0.23650712 0.1394042 -0.1524364 -0.05613273 -0.19482201 -0.37756103 -0.4091339 0.30676085 -0.28668582 0.68056315 0.092270985 0.034909256 -0.08412749 -0.16254878 -0.05384602 1.0024807 0.67138326 -1.3615028 -0.40552098 -0.043854877 0.09446903 0.31670362 -0.49973905 0.5681627 -0.39505786 0.2884677 -0.09663827 0.31534907 0.017001439 0.7875097 0.7936237 0.5929021 -1.2940133 -0.2930948 0.27550247 -0.832001 0.48432893 -0.3408094 0.86862576 -0.16860563 0.6596896 0.069426 -0.42508233 0.80406696 0.5812286 -0.48532856 -1.2206366 0.6320817 -0.41328833 0.007920884 -0.028259102 0.69396216 -0.13083045 -1.4572687 0.7024561 -0.06533252 0.6640903 0.78027993 -0.47879678 -0.27245978 -0.8246226 0.21875857 -0.2328247 0.33400702 -0.5649511 0.7980392
量 1.0910428 0.015131104 -0.4334461 1.6447278 0.56137776 -0.2322143 -1.7866822 -0.9426422 -0.15332885 1.864402 -0.2652764 -1.1325635 -0.23253693 1.0262984 0.1879454 -0.8445222 0.09532966 -0.22672363 -0.16251704 -0.1482301 0.27584904 1.7135388 0.016591502 -0.3765401 0.62379456 -0.8203074 -1.1163408 0.3700676 -0.9437959 0.7966628 0.5784066 0.5184216 0.4525447 0.42210364 -1.5769773 0.17672904 0.44648686 -0.15903805 0.5718622 -0.57185316 -1.8221055 -1.5500485 -0.24290468 -0.2326125 -0.7590457 -0.5493342 -0.2604391 -1.7218702 0.4563528 -0.3963743 0.684649 0.23172453 0.67941725 -1.2630043 2.2541697 -1.0150725 1.9424171 0.75030327 0.16229944 0.5631915 -0.28254116 -0.8251858 -0.60814375 -0.65287286 1.2986825 1.8938845 -0.47654203 -0.38006413 0.14423472 -0.8195122 -1.9772984 -0.9007619 -0.05117356 -1.5053596 0.31819728 -1.1772496 -1.0745375 -0.25934258 0.54504055 0.33946493 0.3219481 -0.07906117 -0.29586044 0.83285683 0.29897666 -0.056770887 -1.3826699 -0.6708421 0.36463052 -0.2934903 -0.35345557 0.6643368 -0.629092 -0.61379457 -0.13849209 0.8969393 -1.1264517 0.64008665 -0.95811534 -0.22505689
生 0.5837349 0.6628362 0.7897971 -0.5303172 0.28543454 -0.30044383 -0.15105969 -0.8713983 -0.09482188 0.15795605 0.45468175 -0.7088946 1.3608266 1.3375875 0.6061295 -0.55007255 0.08741891 0.677208 -0.36206946 -0.96832144 -0.7687371 -1.5106107 1.1816777 -0.4949257 -0.22532842 0.1272249 -0.27289507 0.6971623 -1.222663 -1.6826836 0.7979961 0.6707685 0.04722316 0.05287382 0.39230156 -0.6939477 1.1705103 0.8216549 0.13322937 0.47207963 -0.23075232 0.44638023 -1.7391832 -0.12230239 -0.8522485 -1.1240695 1.8673488 0.28358582 -0.6099003 0.68968207 0.06053571 -0.059840202 -1.7146931 0.52253425 0.327432 0.7741941 0.096259035 0.050404686 -0.91599065 -0.5262774 1.0272208 -0.20428017 1.0322524 1.5602176 0.8808327 -0.22125226 2.0630941 -0.59984046 -0.7467465 1.74198 -0.016367178 -0.04764548 0.90512776 0.51099384 0.61381686 -0.043882895 -0.22288427 -1.9313506 -1.3607605 -0.21520063 0.7959256 -0.9451402 -0.6259248 -0.58706194 -1.2280449 -0.60021675 0.07495195 -1.6040083 0.20558783 -0.7200357 0.096239135 -0.22131792 0.17656662 1.1368076 -0.6268036 0.8350894 -0.31300515 0.4601745 -1.3405613 -0.2842675
或 -0.5431117 -0.28159663 -0.548008 0.3623631 -0.67754877 -1.0359522 0.031734943 0.40301335 -0.7641841 -0.23914506 -0.13882951 0.8753921 -0.27442887 0.5038602 0.19755077 -0.36586785 0.0032795523 -0.21005923 -0.55806965 -0.36504126 -0.13018405 -0.5667783 0.5088188 0.3092956 -0.004000468 0.25395593 -0.32045797 0.41494974 0.026158342 -0.13957554 0.46831194 0.2776149 0.13685976 0.011750671 -0.19614722 0.50035065 -0.4460937 -0.5000754 -0.4956584 -0.44321504 -0.58241814 0.0014940437 0.29698706 -0.23619513 -0.19441043 0.58563066 -0.9332929 -0.14760827 0.3619101 -0.0433063 -0.019621719 0.46391982 0.008346767 0.16937324 0.87805724 0.097205006 0.0041887346 -0.042473324 -0.63736564 -0.45085979 0.20175624 -0.25974834 -0.0546897 0.4256437 0.23387884 0.73048955 0.4544305 -0.41243348 -0.257352 0.47625333 -0.51472056 -0.24440986 0.22084628 0.6836288 0.053277638 0.43989995 -0.018820256 0.7208932 -0.17625903 -0.1731822 -0.5486738 0.32660565 -0.6058926 0.6932187 -0.65297204 -0.27502128 1.0459858 -0.26648274 -0.4069632 0.4037487 0.74351734 0.28894442 0.13781434 -0.23098217 -0.058153782 0.10960134 0.062178887 -0.49291912 -0.8873261 -0.2784481
于 -0.9684899 -0.2926538 -0.8173567 1.0065126 0.6256369 0.5659642 -0.8283609 1.5641662 -0.76707625 -0.4852675 0.8974599 -0.6727233 -0.8361162 0.2941333 -0.5733278 0.14485988 0.4801389 -0.008455807 -0.9275513 0.7452621 -0.6997532 0.76894087 -0.2641851 -0.12303918 0.11665581 -0.42330357 0.22622734 0.95724195 0.024441445 0.6841565 0.2472507 0.017841645 0.7073677 -1.8946693 -0.4154265 0.711327 0.12750132 0.045843136 0.5171957 0.28202352 0.6879998 0.75334615 -0.54753476 -0.18013053 -0.82374305 0.09508168 0.24126224 0.30937144 0.98478764 -2.1459947 -0.12948425 -0.3855887 0.2194544 -0.02660047 0.59886605 0.3889584 0.430441 0.5610391 0.13647155 0.135676 0.8572047 -1.0101625 0.90495837 0.5011425 -0.45905092 -0.6357132 -0.33198243 -0.192922 -0.2308704 -0.5966451 -0.6225421 -0.40334505 -0.1034852 -0.31690198 0.70086384 -1.3101357 0.70702916 -0.10547858 -0.46461228 -0.6401144 -0.13828194 0.31536973 -0.6298283 -0.9827297 -1.0361478 -0.49647138 0.5347134 -0.26186153 -0.5642932 0.7857059 1.0997528 -0.4724347 0.6469009 -0.17250663 0.12700741 0.065802015 -0.8743171 0.19239862 1.7754587 0.63435835
时 0.27713954 0.79876906 -0.4645513 0.4398158 0.4623929 0.2826675 -0.4460779 -0.70236075 -1.250536 -0.46337694 0.24386239 -0.4415975 0.8492497 0.53122824 0.20703042 0.07197753 0.036896624 -0.3768737 -1.5926895 -0.92720306 -0.1307647 0.60263556 0.7382924 -0.16913256 0.65282005 -0.26844668 -0.9280543 1.2311634 -0.17871076 0.8186926 0.9828442 -0.5640188 0.6402687 -0.5979466 -0.13869771 1.3773016 -0.029305901 -0.78955543 -0.27716625 -0.5212588 -0.85555375 -1.2152152 0.33506894 -0.05929566 -0.58325756 0.022086319 0.93771213 -0.045771867 -0.8240598 0.55695266 0.61274487 -1.256145 0.5319637 0.2608519 0.42363483 0.39997777 0.63930774 -0.149685 0.9777157 0.80315834 0.9364574 0.16810496 -0.79827857 0.6562386 -0.041825395 1.0366046 0.73996943 0.35453752 0.42320603 0.38887274 -0.3223305 -0.9977101 0.51218677 -0.12329095 0.068584114 -0.38205895 -1.4299864 0.5971806 1.6579239 0.9672093 0.046625532 0.25612524 -0.45661646 -0.5472937 0.7119503 0.47546336 0.024472022 -1.4888126 -0.662836 0.61270803 0.31771973 -0.2207513 0.7463246 -0.6011027 0.7216983 0.005868322 -1.2258329 0.08717273 -0.008564299 -0.29524198
高 0.41940603 -1.1741784 -1.3334844 -0.2331974 -0.021128839 -0.6293476 0.6662394 0.22219884 0.07244626 -0.4796861 1.2458723 0.6882944 0.59867066 -0.61621886 -0.02674112 0.18752699 -0.24048765 -0.17287044 -0.57838565 0.5757942 -0.28316686 0.10012592 0.33467355 0.04623594 0.769515 0.7337151 -1.339268 0.55243504 -0.35360333 -0.37698594 -0.9980163 -0.755927 0.25827923 -0.9689596 0.58723634 -0.40014547 -0.42013016 -0.8830245 -0.13755749 1.1099787 -0.7885203 -0.90073067 -1.1794635 0.58346754 -0.24596307 0.2794457 0.99954677 0.7688726 0.55009806 1.257304 1.1297822 0.15614289 -0.28403312 -0.9661405 0.24986087 0.32256892 -0.7011441 -0.25888318 0.26296476 0.45985013 -0.47572565 -1.0694283 0.52455515 2.1052766 -0.99317056 0.64367056 0.31317312 1.2832271 0.19189157 1.3114032 -0.035269633 0.05989829 -0.27398854 -1.0083905 -0.8184934 -0.57685703 0.7596501 -0.6303968 -0.8985744 0.3491118 -0.24857718 1.1400528 -1.4622089 -0.23296505 -0.855761 -0.52313405 0.24430285 -1.3332326 -0.37210342 0.3083808 0.326512 -0.2722343 0.5395538 0.95938915 1.3197432 1.2136685 1.071201 0.94440866 -0.039925855 -1.6315314
5 -1.6290194 -0.5259744 -0.07122529 1.6587446 -0.17188013 -0.47330827 -0.18462603 0.046776865 -0.637736 -0.62958413 -0.79994375 -0.02793802 -0.58907545 0.1702933 0.38785082 -0.22770862 -0.6975038 0.19809823 0.35709283 -0.102469504 -0.5039875 1.7197186 -1.1604674 -0.2527191 1.311931 -0.4348718 -1.748306 0.3440834 -0.32666424 -1.0561948 0.27085957 -0.53489864 1.4377202 1.0222305 -0.89873093 1.2067381 0.6194718 0.42049247 -0.33528063 0.39835876 0.19365281 0.037914865 -0.56644297 0.6342755 0.2069677 0.24024661 -0.6719362 -1.0442582 0.44513798 -0.1597323 -0.47390768 0.11498668 0.0835772 -0.0971232 0.7811588 0.47837326 -0.1054494 -1.4078838 2.0217957 1.063745 0.3497183 -0.026875978 -0.23194385 -0.65926236 0.37517807 0.57907224 -1.2007353 -0.24831675 -0.36313516 0.12898563 -1.7557545 0.23640893 -0.22882861 -0.24153854 0.087204084 -0.6850924 -0.5746758 0.65079117 0.57800746 -0.30096108 -0.5082903 0.1885181 0.25138775 2.165598 -0.50868875 0.943872 -0.029939435 -0.4813768 -0.19927773 -0.061155908 -0.040359154 0.1921267 -0.8172093 0.52721554 -0.80367625 1.596589 -0.72636974 1.2551135 0.21715075 0.38165805
对 -0.41055107 -0.36531085 -0.12478923 -0.28979227 0.1954624 -0.08822453 -0.16514258 0.88309735 -0.3162765 -0.7738475 -0.29374427 0.41840723 0.044936717 -0.9642768 0.42985216 1.0896133 0.19541004 -0.1607456 -0.38614237 0.66887844 -0.49911836 0.003122162 -0.06422927 -0.86891395 -0.4757236 -0.49246085 0.091956556 -0.16420272 0.47326437 -0.04833039 -0.7789695 -0.21397689 0.18733692 -0.04952774 1.0702804 1.104915 -0.6762114 0.3464594 -0.7404454 0.8436882 -0.092554346 -0.24524276 -0.37791324 -0.13282932 -0.3282853 0.32675105 -0.21969895 0.07633466 -0.55828136 0.41539103 1.374871 -0.1592921 0.73372287 0.65749866 -0.44507873 0.36425984 -0.10164963 0.38422576 0.04020409 0.40563187 -0.19212279 0.39318433 0.21159546 0.6027192 -0.40529633 0.91929334 0.13805103 0.34378657 -0.20455846 0.08845359 -0.4148321 0.6593007 0.20136748 -0.7414746 1.2232925 -0.53161895 1.1079737 -0.43829685 -0.5696228 -0.080983154 -1.2343546 0.36738324 -0.69522583 -0.42777562 -0.65752155 -0.036106814 -0.9072543 -0.24515386 0.8142293 0.5044724 0.33706787 -0.342534 0.34738398 0.02811254 0.49667332 0.28827828 -0.8910015 0.16504692 0.24648662 0.8607431
： -0.372002 0.15459512 0.3155438 0.07575485 0.109497495 0.17304224 0.17933303 0.57357264 -0.29933423 -0.80007964 0.033325892 -0.13406885 -0.2699114 0.6953689 0.62901086 -0.41257402 0.41913617 0.7245165 -1.1182986 -0.41769406 -0.22917995 -0.35601488 0.16809236 0.48052073 -0.4015241 -0.28603023 0.1376008 -0.22840999 0.37438253 0.71737987 0.031498015 0.14321178 0.118832804 -1.1346645 -0.36238074 -0.68991566 -0.050879136 -0.042934578 0.459604 -0.24870393 0.86441576 0.33654258 0.12332605 -0.71065587 0.1885819 -0.67800444 0.060030024 -0.54553735 0.5056914 -0.08970111 0.019819375 -0.5739191 -0.85296327 -0.20194255 -0.6415363 -0.40726095 1.0544033 0.3174981 1.0331353 0.8922786 0.9495385 0.062740184 1.1256613 0.38997224 -0.22179659 0.35906 -0.28928572 -0.7261073 -0.2727378 -0.73208356 0.22237554 -0.9012022 0.37141734 0.38691103 1.3798783 -0.2951291 -0.13960491 0.46333596 0.05356522 -0.9381639 0.15258698 -0.3220859 0.22568877 0.5162181 0.10570173 0.41083863 -0.079124704 -0.14380412 -1.1137825 -1.4321841 0.733804 -0.18365283 -0.2539744 -0.7810851 0.03430509 -0.45807287 -0.081610546 -0.013962756 0.18535435 0.3222686
肾 -1.5714456 -1.0337332 -0.59219265 -0.22736505 -0.80294853 0.4067112 0.68285745 0.9745406 -0.7380793 -1.5498604 -0.60445416 0.465246 -0.99587905 -0.03081425 -0.22681296 -0.6222859 -1.0293998 0.20509207 1.6910173 -1.0558733 -0.19085279 -0.772483 0.88858706 0.95570666 1.0814537 0.4983328 -1.1276721 -0.12946895 -0.5402308 1.3442831 -1.6281441 0.5477267 0.45999023 -0.38027394 0.19088134 0.9947812 -1.2568151 0.095583744 0.09101256 0.039645243 -0.4798676 0.72577286 0.44762748 0.47700393 0.8159897 -1.0030996 0.59857905 -1.3352869 0.85651195 -0.09367887 0.26114315 1.6557895 1.242252 -0.8501266 -0.23085254 -0.56456774 -0.2844335 0.63171107 0.509717 0.4003268 -0.028816547 -1.2385751 0.33844694 0.51679033 -1.048179 -0.53801954 0.23692437 -0.11237215 -0.9738376 0.45197293 -0.7193639 0.84130275 -0.5540264 0.43214485 0.0038658637 1.7462714 0.7750321 0.35821643 -0.19052424 1.4183335 -0.15663265 -0.45707917 1.4207307 0.7794914 -1.9230087 -0.63990015 0.9226126 -0.01021278 0.46644923 1.3937564 0.7142685 0.12002988 -2.0658474 0.052610297 -0.6142433 1.0102249 0.31996757 -1.3241243 1.1398053 0.52207035
体 0.2723785 0.21064001 0.6408066 -1.3097101 0.7035408 -1.4111995 0.8030528 -0.7587482 0.7576033 0.3081568 1.2687752 -1.7401395 -0.6034713 -0.11289635 0.39801326 0.5842518 0.019535221 1.1568625 -0.80438304 1.3343129 -0.04307853 -0.31898025 -0.53333765 -0.637422 0.8898728 -1.4704411 0.1849063 0.06804297 0.3167232 -0.8263349 -0.50763726 0.37615967 -0.30891407 0.60857314 -0.50422454 -0.4670756 0.58803946 -0.85564595 0.14298841 -1.154989 0.33368316 -1.0170585 0.073572636 0.6680746 0.24001746 -1.5598805 -0.49829602 0.37460378 1.2687981 0.24642472 0.30916777 -1.5619098 1.8567686 -0.40401864 1.1400166 -0.29711667 -0.4138016 0.0573472 -0.5477138 -0.18685181 0.17609498 -0.34148782 1.0149547 0.038737833 -0.6267324 0.8136377 -0.15946941 0.48429015 -0.16181803 -0.20793979 -0.7338247 -0.92896605 0.23571555 -0.788033 -0.25982913 0.26116142 1.171962 -1.4171044 -0.7924397 -0.39089474 -0.27534598 -0.6140644 -1.0224379 0.54359156 -0.036745664 0.10408515 -0.24188636 -1.2535399 -0.52072203 0.89740235 0.24450402 -0.338985 -0.6417685 -0.40730652 0.584396 0.8291403 0.47166765 0.008902491 1.1066139 0.45753974
- -0.3863581 -0.88242483 -1.6711115 -1.1495186 1.694642 -0.9930532 0.34027648 -0.033878375 1.2368647 -1.4348478 0.6638013 -0.52824986 -1.0653898 0.6816881 0.52209 0.60347164 0.32200688 0.37313986 -1.2260756 0.09848157 -0.7042082 0.108139575 -1.1800026 -0.19920588 0.5238253 0.18175514 -0.92931 -0.8894465 1.0165533 0.76831204 -0.046666138 -1.5279504 0.9235662 -0.16185956 -1.7991077 -0.13301045 1.3816453 -0.69966143 -0.3148719 0.75767225 -0.3520372 0.67355996 -0.50500035 -0.7721594 0.13055497 -0.2669733 -0.87390316 -0.85819036 0.2544022 -0.3602321 -0.074203156 -2.4093184 0.8103595 0.41449443 1.9937686 1.4090806 1.5053209 -1.4529063 0.71705806 0.706976 -0.10067245 0.27856946 0.12805599 0.19343123 1.1622926 0.8772761 -2.0152042 -0.39793724 0.83298886 -0.87949103 -1.6764365 -0.40613762 1.0043601 -0.04346631 -0.73838806 -1.5948616 -1.3864397 0.60742295 -0.18912125 -2.1210365 0.16333154 0.61366177 -0.29872292 1.9253854 0.41404483 2.2815595 0.7954605 0.11645738 -1.0021245 0.28210956 1.3121719 0.4278072 0.17039001 0.59666127 1.0058582 0.79611266 -0.25617385 1.7876276 -0.56263983 -0.96206284
C -0.6713408 -0.73429185 0.31329265 -0.48365384 1.9031444 -0.2103551 -0.0050574695 0.1080314 0.44580612 -1.6352592 0.5243006 -0.25166526 -0.51306665 0.38709936 0.18207006 1.7176158 0.0077584563 -0.4884666 -1.9685427 -0.05524947 -0.7150479 -0.18977976 -1.0555769 -0.76972276 -0.1797002 0.09941066 -0.5785243 -0.14789313 0.04892894 -0.8662165 -1.3922796 -1.0041382 1.3968021 -1.3181466 -0.81288606 0.03076218 0.8141567 0.34820458 -1.0280384 2.295735 1.2353522 0.8086022 0.048096467 0.5155115 1.6607496 -1.371662 -0.025222037 -0.67767125 0.32729253 0.18332942 -0.49979895 -0.20749255 -0.37349567 0.9572882 0.3875151 0.7837381 -0.22290878 -0.034407135 0.73341036 -0.091837704 -0.39719605 0.085624225 0.37790883 0.7656014 -0.3647304 -0.27783898 0.101726584 -1.3094494 1.2505006 0.31462762 -0.7576638 -0.6337441 -0.7669483 0.41693333 0.40500787 -0.4059245 0.23756471 -1.3034214 -0.17135857 -0.7426076 0.14575359 0.7612412 0.5366634 1.3040773 -0.56216884 1.2122188 -0.19964457 0.65789366 -0.5464586 1.6712887 1.2516037 -0.22911987 0.16420467 1.390338 0.8336538 0.8669639 0.031776734 0.5792783 -0.40181258 -0.551533
类 0.09173279 -0.97457075 -0.13399109 0.038389232 0.5256052 0.20424958 -0.73628396 0.35668454 0.12921336 0.99807656 0.10529867 -0.48676658 0.15859222 2.7652884 1.2392288 0.7056655 -0.32590848 -0.018736014 0.9859239 0.37324247 0.33624277 -0.45349646 -1.4369822 0.43125337 -1.432438 0.3649984 -0.90284914 1.0883688 0.94838184 1.1749575 0.87100524 0.9014961 0.38145736 0.08126159 -0.97914577 0.9158079 -0.43725494 1.0706842 0.16621274 0.11326419 -0.83546364 -0.9882681 1.4747641 0.3607143 -1.0679604 2.750822 -0.45584926 -0.1715277 -0.6121689 -0.114223465 0.21093433 0.24368934 -0.16334511 0.09086522 0.75886625 -0.5497482 0.059723705 -0.7022991 0.80436665 0.13719624 0.99037945 0.4398873 0.5720908 0.82971907 -0.7317507 0.43293512 1.0935729 0.43771085 0.15361097 -0.018200887 1.445117 -1.9714158 0.30432725 0.680086 2.105332 -0.03776349 -0.15381831 1.119595 -1.2621726 -0.5692473 0.30999738 -0.151831 -0.51539165 1.6708817 1.807117 -0.55449104 0.5457169 0.5467017 -1.0166533 -1.7110403 1.462919 0.37833375 0.9558701 1.0132778 -0.16320425 -0.42910618 -1.4091153 0.6914286 -0.31442302 0.5828409
一 0.09341306 0.6902991 0.8179775 0.4029344 0.8751351 1.0810517 0.69488126 -0.24562871 0.027013514 -0.5460157 -0.38253778 -1.7055006 0.51879 0.1996078 -0.6397714 0.0918043 0.8331446 -0.8671197 -0.74233353 -0.28799427 1.0297401 0.44071266 -0.5655276 -0.4555803 -0.006832629 -0.3111996 0.040137455 -0.3565188 0.31528762 -0.058125988 0.58931583 0.92221516 0.3017192 -0.048454247 -0.0043497076 0.48335725 0.6267135 1.1071424 -0.24085145 0.59534436 0.02948637 -0.3817598 0.24942274 1.104131 0.11875149 -0.6999216 -0.19606216 0.81169295 -1.022178 1.0651221 0.31599078 -1.2645878 0.63873774 -0.35188964 -0.98436284 -0.36117652 0.3787348 -0.1423805 0.88699275 1.334477 0.79968005 0.9562746 1.7493495 -0.16569304 -0.9046254 0.712932 0.05849753 0.109493844 -0.5248976 -1.2543969 0.5160872 -0.5093347 0.2856903 -0.91269404 1.0324336 0.14239141 -0.91625684 0.84911966 -0.031412642 0.45952284 -0.7011161 -0.85101646 -0.4377324 -0.53758264 1.1899418 -0.56698567 0.8745257 0.531796 0.41531944 -0.6389738 0.700321 1.0002452 0.5570948 -0.07476917 -0.7951793 1.0298667 -0.20522135 0.3727011 1.5358031 0.71115255
分 0.88158745 -0.62079006 1.7570448 -0.18291803 0.026788028 0.34088925 0.7598469 0.77682257 1.1472187 -0.85355955 -0.3762136 -0.09235548 -0.48772854 0.8238832 -1.0328364 1.8761404 -0.7970062 -0.51551855 1.207458 0.057629906 1.0118514 1.4344428 -1.0293722 0.43096617 0.38171774 0.85142547 -0.028795674 -0.6913077 0.12824933 0.33660045 0.31202728 -0.09220635 -0.22950584 1.42284 -0.062494338 0.20130236 2.6787949 1.1098121 -0.17194742 -0.3673273 0.38467234 0.24180047 -1.1524843 0.36595893 -0.4282284 -0.9528133 -0.17611787 -1.1358426 -0.5438626 0.7902259 0.06393077 -0.008392734 -0.48234594 -1.021907 -0.065982096 0.3716477 -0.20272122 0.04437478 0.03877188 -0.2360973 -0.15684901 0.21127065 1.0758839 0.12028406 0.20536469 -1.1125447 1.3666129 -0.14552818 -0.06856285 -0.8308419 0.29628116 -0.43785 0.26301274 -0.35763952 -0.42454946 -0.8837044 -0.19985011 0.08414968 -0.9982737 0.7948971 1.810936 0.9112442 0.09370755 0.6305979 -0.11328884 0.6701583 0.4852622 -0.48343605 -0.37463787 -1.3028082 -1.1931273 0.015240314 1.2746577 -0.06655405 0.5010676 0.4635152 -0.08409933 0.3330561 -1.4257272 1.2183498
% -1.7888037 0.35179776 -0.77772975 1.0497601 0.2588684 -0.019057073 0.8624522 -0.69266635 -0.8876531 -1.1390175 0.40080717 -0.43424547 0.46253082 0.7318019 0.30226976 -0.8812228 -0.2620754 0.7409592 0.5305248 0.783982 -0.35919812 1.5622839 -1.1078538 -0.61026096 1.063319 -0.43427783 -2.1017392 0.54923 -0.12498598 -1.3141769 -0.42255834 -0.9677141 1.3030474 0.42274442 -0.30490118 0.37819168 -0.11604515 0.27640486 0.05886104 0.6965728 -0.9204282 -0.4036374 -0.13867107 0.87045735 0.011674721 0.96498454 -0.43589592 -0.5949633 0.48734832 -0.07095306 -0.73707473 0.3742079 0.22937538 -0.14195031 0.72210485 0.78682417 -0.29086563 -1.6667042 2.6215265 1.5609895 1.0357779 0.30663368 -0.2578258 0.32373235 -0.16352144 0.8166586 -0.94790167 0.6311358 -0.6557081 1.0506768 -1.2705911 -0.17425336 0.5196572 -0.6196673 0.5128097 -0.21310183 -0.24160895 0.85992646 -0.17145896 0.14317568 -1.2899734 0.095851496 -0.3329791 1.5143422 -0.34257555 0.037769124 1.0065024 -0.7277174 0.2022745 -0.41063985 0.2910882 0.46426526 -1.256825 1.6924862 -1.47931 2.009168 -0.6771961 1.2445887 0.39706793 0.9929493
4 -1.0763868 -1.1380248 -0.72577435 1.0839906 0.564279 -0.5018894 -0.24591722 0.14063582 0.034607053 -1.0053978 -0.37468025 -0.5119912 -0.49303877 0.2635184 0.7954591 0.2191399 -0.48988706 0.66115034 -0.34667662 -0.3139166 -0.67486817 1.2030953 -1.4043936 -0.07629692 0.9234291 -0.52033824 -1.1486326 -0.07026017 -0.27876607 -0.28741586 -0.20145433 -0.53939867 0.80584097 0.69764805 -1.2158701 0.6952918 0.52306455 0.052007344 -0.68818307 0.8770862 0.24423888 0.28045264 -0.6473517 -0.064013034 -0.10371384 0.32342348 -0.08065531 -1.100102 0.26688245 0.26695138 -0.17015809 -1.0914544 0.3034892 0.08511767 0.9616458 0.5769283 0.42614818 -1.6553558 1.691451 1.3402016 0.065677196 0.1652876 0.06803572 -0.4167781 0.44761056 1.337548 -1.5879471 -0.35763505 0.01644585 -0.5888824 -0.8248261 0.25192878 0.15437847 -0.50025445 -0.24340515 -1.0354397 -0.60522234 0.20597729 0.27231294 -1.2456288 -0.121179126 0.17545664 0.18579096 1.4017812 0.02449562 1.0296724 -0.030805746 -0.2923335 -0.38269803 -0.6159675 0.2853576 0.50651306 -0.5988244 0.9148212 -0.34172755 1.5525255 -0.9466586 1.4144095 0.25309107 -0.12620981
并 -1.4337509 -0.10266395 -0.24041355 -0.36297625 -0.37009653 0.92732763 0.38749093 0.7677984 -1.0645598 -1.9468118 0.71470636 0.14593588 0.31134897 0.5744627 -0.25053695 -0.4929101 -0.37051433 -1.0552686 -1.5263182 -0.6031398 -1.1495997 -0.9954134 0.61993825 0.98875636 -0.34672 0.26350084 -1.2206477 1.713872 -0.3655078 -0.30163705 -0.8694941 0.55762976 0.8099876 0.07143888 0.053178113 -0.24906881 -0.27688488 -1.0788072 -1.4381115 0.96437526 -0.766564 0.08482911 -0.07345346 0.0031249758 0.14740221 -1.2392493 0.1741777 0.34939998 0.5854976 0.8941602 -0.093132354 0.94627696 -0.26174036 -0.69692415 -1.2384058 -1.0987701 0.38785958 -0.42151058 -0.8599222 0.55580443 0.5124165 0.97155815 0.4002578 1.2302562 -1.7374032 0.7553589 1.7177739 -0.17585169 -0.16388395 1.3358442 0.10764156 -0.28624472 -0.42717364 0.7846098 1.0059131 1.2120475 0.2438778 -1.806959 0.8588879 -0.39098513 0.25868478 0.001782616 0.079525 -1.9027454 -1.2325636 -1.495141 0.7737839 -0.42768404 -0.3347318 0.7515536 1.8037876 0.5320237 -0.61207193 0.91290843 -0.23583943 1.2507911 0.68389475 0.0968783 1.1994771 -0.5742931
二 -1.2958887 1.27809 -0.46050698 -0.59678096 1.2647945 0.19321331 -0.81115186 0.611493 -0.29402372 -0.7453689 -0.44407097 -1.2804354 -0.026691422 -1.0564928 -0.06353154 0.3830271 -0.2496553 -0.6868135 0.3384251 -1.8199929 -0.61744726 0.054318044 -0.3026077 -0.5205286 -1.9018202 0.48401293 -0.48875615 -0.17745012 1.4925107 0.33939528 0.6793795 -0.081789196 0.27889457 -0.26389462 -1.1434343 1.1997861 -1.047742 -0.14041564 0.29781586 -0.13756667 0.41563255 -0.72746325 0.23955537 -0.023801383 -0.28302878 1.8172442 -0.8133795 0.12479222 -1.2112386 -0.6562594 -0.27018416 -0.6818249 1.1951071 0.52710736 0.5799414 0.076121606 -0.54733694 -0.7761421 0.013314634 0.7319125 0.6407725 0.7333796 0.1318391 0.17520992 0.12103001 -0.27038375 -0.17872554 0.22549771 -0.6725103 -0.37075105 0.011897666 1.1120286 0.14866674 0.26114097 0.67582434 0.9558664 0.010918038 -0.55034447 0.34574002 -0.93926483 -1.0512004 -0.44247207 -0.3636621 0.91120493 1.3860838 -0.83794004 1.646625 1.3039725 -0.7089579 -0.3891334 0.37525433 0.7701363 1.5563259 1.0857741 -0.32080603 0.049934912 -0.8946469 0.2598019 1.4443543 -0.076590665
期 -0.5593162 0.89616793 0.48094392 1.5237435 -1.219322 1.0276617 0.13571659 0.059672248 -2.8642054 -1.0603619 0.58020145 0.39484817 0.047766007 -0.34066802 0.78928846 -0.77175725 -0.20568341 0.3104084 -0.47267488 -1.6001977 -1.3614534 0.73981845 -0.90947425 0.113501355 -0.8109767 0.27186343 -0.09650775 0.8895681 -0.57248724 -0.7576316 -0.74582803 -0.705855 0.6537407 -0.3042797 0.32577148 1.387564 0.26181102 -0.21991137 -0.6360415 0.3667518 1.3245461 -1.1425506 -1.08297 0.29346415 -0.31573355 -0.2398462 0.55539846 -0.44661713 0.302068 0.44123173 0.11402947 -0.14574757 -1.1554922 -0.4991921 -0.58904713 0.48684034 -0.54073083 1.2755947 1.2045491 -0.20132618 0.34480262 -0.77093023 -0.2770888 0.8360641 -0.12205674 1.0348976 0.6645653 -0.8323284 -0.41382173 0.44301376 -0.5779242 -0.9644624 -0.8861524 0.2143268 -0.54260087 0.40226412 0.058356684 0.8687323 1.2052375 1.0061517 -0.8483214 -0.39718416 0.23837793 0.24656805 -1.1206174 -0.6126465 0.12427595 -1.1219577 0.30445606 1.2199388 0.72690034 -0.7575343 -1.3010614 0.8623044 -0.6598933 0.39165506 -1.2277082 -0.24867183 0.19945182 -0.20459364
以 -0.67589223 -0.49873656 0.7687451 -0.046764024 -0.41520312 0.8272018 0.7016192 -1.0241956 -1.0412309 0.35383445 0.1657935 -1.1688073 -0.37602326 0.9545047 0.17206888 -0.08976296 -0.18505822 -0.49927524 0.23103894 -0.75530714 0.71205413 0.19167775 0.36921072 0.51427114 -0.13020484 -0.13962722 -0.3834226 1.1327771 0.023676889 0.55708194 0.25833875 -0.47158182 0.3793596 -0.11154211 0.22235838 0.115138866 0.59881216 -0.07857135 -0.3827152 0.13940956 -0.51237315 -0.62714016 0.16256523 0.30392578 -0.22536354 0.3671288 0.17472309 1.1658297 -0.37979195 -0.45095313 0.40034935 -0.8676322 0.18589301 0.45535046 0.5689871 0.5914131 -0.5206914 -0.6318184 0.36518705 0.11470094 0.44362846 0.4823619 -0.54235613 -0.36684445 0.026734637 0.21644287 -0.12371168 0.9603764 -0.67445123 0.3065893 0.0048395884 -0.37812304 1.1457105 -0.049103267 0.022761712 0.69231755 -0.42428744 0.75664115 0.2542485 0.16857013 -0.70477295 -0.27084377 0.36907157 0.18366227 -0.3395291 0.5849194 0.03022343 -0.70611715 0.24182014 0.85500693 0.16221969 -0.34761158 -0.22803743 0.1819566 0.31030306 0.39580235 -0.06913529 -0.42843342 0.20134354 0.105289266
及 0.22745335 -0.41765723 -0.33169234 -0.21877582 -1.0004454 -0.06531646 0.8969648 0.27503818 -0.8830067 -0.20861655 0.65747285 0.36097756 0.14651246 0.2878702 -0.4342062 -0.46131638 0.70490295 -0.24518618 -0.55643463 -0.85100985 -0.39893478 -0.41412607 0.32989702 0.5191368 -0.17555392 -0.436949 0.09704854 0.6359135 -0.53497314 0.14963041 0.33936426 0.8272393 -0.8100148 -0.93014747 0.9159019 -0.48202518 -0.25879553 -0.6490885 -0.43051508 -0.73522323 -0.70679694 -0.20344837 -0.671198 -0.1969004 0.20563509 -0.023633815 0.12452934 0.6289287 0.55006236 0.110778555 -0.5594105 0.47358108 -0.7727869 0.60004145 0.042650633 0.09666761 0.9282144 0.41864997 -1.2770104 -0.2157684 0.011174539 -0.058637947 0.061603054 -0.012710777 -0.60594517 0.8828855 0.33294982 -0.23393461 -0.3573214 0.32740307 0.079548165 -0.0006064398 0.777175 0.5167487 -0.042724017 0.15677935 -0.066674344 0.4212191 -0.5320493 0.040118877 -0.10971515 0.43469414 -0.034521908 -0.026060665 -0.45156828 0.16832507 -0.2862033 0.42967585 -0.113695316 0.27775443 0.32689372 -0.7035981 -0.40415972 0.053555593 -0.27073514 -0.022200948 0.2943332 -0.53672475 -0.3314917 -0.16714217
格 -1.2982411 1.4266851 0.41689453 1.110583 1.7565504 1.1656513 -1.3918538 0.86558133 -0.62147784 1.5676104 -0.11104553 0.64929104 -1.748101 0.7424154 1.3912952 -0.49909857 0.18496701 -0.35452542 1.3202101 0.22419077 -1.824177 1.8738236 -1.9688202 -0.007679684 -0.7712043 -0.95042247 -2.399145 -0.59943783 0.6514192 0.13028629 -1.8077288 -0.623602 1.4031799 0.38888264 -1.1861335 -0.13789243 -0.95396364 -0.3355668 1.5067693 -0.18443869 1.0640262 -1.3143176 0.9083455 0.66543347 -1.0516983 2.2949886 -0.7764702 1.1608057 -0.88245827 0.23004584 0.29788595 2.1720893 -0.67886865 0.062809184 0.8137284 -0.50377727 0.2787583 0.9628215 1.9442235 -1.3329089 -0.8550236 1.1654502 -1.484904 -1.4358108 -0.8470574 -1.3471124 0.38741678 -0.071289174 0.116507195 -0.6287178 1.7354244 0.43347284 0.021214454 -0.7407881 0.5353869 -1.2339329 1.5241051 -0.38609248 -1.1879795 -0.82234466 -0.03495257 0.29129252 1.6217523 0.19230625 1.1550562 -0.67625177 -0.56708944 1.8169458 0.9697065 0.368565 0.9870637 -0.0820098 -1.7889993 1.8226987 1.251212 0.8742363 -0.043527476 0.18452288 0.21562421 -0.5579953
使 0.14961246 0.1147112 -0.9068457 -0.13446458 0.6287301 0.86086273 -1.0169758 0.5918862 -0.13798779 0.44652092 0.3070326 -1.6571276 -0.7142617 0.5405497 -0.2773321 -0.18531331 0.8313747 -0.18909779 0.23267832 -0.818184 -0.38338062 1.6196567 -0.21986419 -0.19893566 -0.75996906 0.013094862 -0.24279313 1.3510691 0.8010686 0.59010535 0.89073336 -0.16208899 0.76458275 -0.40072882 0.20387548 0.6422394 0.7821997 -1.0746621 0.69770944 -0.27511874 -0.7376285 -1.3069412 -0.20831971 0.24827117 -0.67425764 0.059861522 1.0883051 -0.33772057 0.30429804 -1.6083945 -0.93658006 0.4471532 0.060788713 -0.02964381 0.88969266 0.015877996 1.0045469 0.55884624 -0.03924911 0.39466503 1.562218 -0.693934 -0.30941418 0.24439028 -0.37307554 -0.21473773 0.3938017 -0.15675934 0.36542946 0.27212396 -0.28435153 -0.84595567 -1.1486511 0.71605694 -0.004461201 0.23645553 -0.15660557 -1.0222534 -0.51006037 0.48605695 0.68986434 0.2215463 0.49956602 0.44171414 0.9239692 -0.28715518 0.61189026 0.050069578 -1.5811514 0.33686978 1.1090528 -1.4075503 0.9544594 0.30711758 0.54283696 -0.28228128 -1.7462795 -0.013998807 1.8006406 -0.75771177
T -0.83027935 -0.86564296 -0.12395505 -0.9378228 1.8354583 0.13025898 -0.11715608 0.9032229 0.9466139 -2.086328 0.14161682 0.55167407 -0.6036622 0.87660426 0.36751682 0.3199668 1.1941696 -0.8180913 -0.86845064 -1.0851867 0.46423417 -0.9719914 -0.90809673 -0.71961874 -0.345517 -0.31075692 -0.106353045 -0.079007156 -0.16526657 -0.3848993 -0.8949535 -0.6790072 0.30924192 -1.2435408 -0.5021861 0.0718866 1.4125253 -0.058534287 -1.3413633 2.9132411 0.87409806 0.35302588 0.5409378 -0.25910276 1.3553057 -0.88088316 -0.765745 -0.6985678 1.1447487 0.27334794 -0.9224705 0.041737165 0.52811563 0.8140893 0.088635765 1.191186 0.81980187 0.04256892 0.96662647 -0.073435895 -0.8632422 0.016463274 0.2729664 0.7566036 -0.2326592 0.86276954 -0.7855452 -1.9667119 1.4887352 -0.49361983 -0.28863487 -0.5023614 -2.1069682 0.20629159 0.6346539 -0.88114387 0.31491333 -0.56546086 -0.06079047 -1.4762577 0.40472314 1.2680293 0.34449437 0.66290945 0.7958756 1.4319652 0.6332377 -0.008730652 0.0082612885 1.8784482 2.5860286 0.3154994 0.58348656 1.2387601 0.514612 1.7147901 -0.3119439 -0.16808271 -0.008038672 -1.1409051
/ -1.1700096 0.34143206 -0.6304709 0.10953588 -0.062219568 -1.7523749 -0.5940192 0.34003675 -0.30421492 0.13181339 -1.2061756 0.24145788 -0.774309 -0.19661035 0.8223482 -0.806273 0.113549255 -0.8315327 0.17476399 -0.17196368 0.15639217 0.8557845 -0.4776889 -0.5479269 0.30067137 -0.18178742 -0.5184483 -0.053943124 0.16701248 -0.71642214 1.3460206 -1.0127579 0.441661 0.7432947 -1.3604789 1.8078804 1.1587563 0.36078122 -0.48532817 -0.47155008 0.2778082 0.38062805 -0.3902701 -0.05783537 -0.40375498 1.4434669 -2.6392977 -0.28104213 0.44993752 -0.7725804 0.13009094 -0.31935015 0.33634162 0.8490986 1.2981212 2.2712796 -1.0455667 -1.554604 0.38219854 -0.04366305 0.2505501 0.42928472 -0.9665638 -0.8872863 0.90242314 0.79649705 -0.7835577 -0.5262214 0.367489 -0.018456224 -1.2367688 1.161316 0.128134 0.8059354 -0.6215765 -0.3767505 -0.66600424 1.4427891 0.22709447 -0.7916295 -0.54146296 0.5936701 -1.2375146 1.9883711 -0.556806 0.8927308 1.0229874 0.34985882 0.036410425 0.44674402 1.5969752 0.7483829 0.80478084 -0.3146223 0.8795966 0.79932106 0.36534393 0.96528536 -0.59267503 -1.0360819
L 0.22142561 -1.3936683 -1.119532 -0.45331666 1.843276 -1.1772525 -0.19314651 -0.66176677 1.0353842 -0.48329636 0.49115932 -0.095000535 -0.78128827 -0.046507627 0.33582774 0.92181665 -0.07796006 -0.6807772 -1.8063942 0.08678284 -0.101626724 -0.078912 -0.6709564 -0.51471585 0.6534821 0.13561215 -0.48262513 0.0868406 0.3785193 0.122627385 -0.011401573 -1.096106 1.0409607 -0.6215354 -1.1460236 0.60018253 1.0563574 -0.29039767 -1.5943975 1.4890257 -0.29126003 0.67897946 -0.21524768 0.2960408 0.85706186 -0.5879554 -0.043631244 -0.4369673 0.5285549 0.1419412 -0.058201745 -1.7022603 0.34333992 1.2314734 1.6879467 1.2840153 0.855875 -1.3639839 0.12981436 -0.14446679 -0.34210798 -0.60361993 0.5766891 -0.2452136 -0.5132561 0.26272878 -1.0345331 -0.27705145 1.3083215 -0.05024772 -1.0772545 -0.8461855 0.10354041 0.88684094 -1.1192665 -0.12782474 -0.9130939 -0.1911182 -0.5152944 -1.210501 0.45105085 1.3607453 -0.2839825 0.821391 0.14295353 2.002346 -0.019849153 0.67943174 -1.0068629 1.3492851 1.3019027 0.0547518 0.60374504 0.60354346 1.7049553 0.81036407 -0.57432145 0.9468287 -0.49541053 -2.2039092
年 -2.0374079 -0.19298899 -0.019594995 -0.059820168 -1.9159317 0.17964007 1.4898982 1.643797 -1.2345977 -1.8843275 0.31529185 0.5953296 1.2126256 -0.31080976 0.09195287 -0.547736 0.15105759 -1.1017708 0.95369065 -0.02414784 -0.31228608 1.2474887 -1.2512978 -1.2795049 0.28580672 -0.23355387 -0.1848104 1.3858186 -0.5878054 -0.7904822 -0.07915689 -0.98894536 0.82210004 0.37550163 -0.50046635 0.6384263 0.6173658 -0.5158848 -0.68629277 1.0651612 0.66496617 -0.5847736 -1.6746258 -0.16555457 0.4064073 -0.7937769 -0.099484965 -0.78495914 -0.09584052 -0.39503106 -1.0555972 0.1426889 -0.7426451 -0.026745955 -0.7218216 1.7998402 -1.03025 0.18800874 1.7025176 1.2596837 0.3668009 -0.47583565 0.83747864 0.21584658 0.116665214 1.5481902 -1.8364317 -1.1861802 -0.123122476 1.077399 -0.3336657 0.21489483 -0.8733791 -0.59856915 1.3203987 -1.8832155 0.591074 0.5401628 0.47013557 0.49877042 -0.44241005 0.39606932 -0.89792794 0.35531688 -0.9887865 0.12344727 0.21391353 -1.6896286 1.7793965 1.7776495 0.5580139 -0.06398219 -0.5098713 0.2943331 -0.6235708 1.9150506 0.20838848 -0.3723402 1.0120618 1.5106299
列 -1.9955958 2.0781436 1.1191133 -0.3355549 0.6642567 1.3287079 -1.9962627 1.1950709 0.2749698 2.0808713 -0.51509374 0.255628 -2.1159716 1.4619995 2.052136 -0.33970803 0.13953716 0.13016145 0.8142101 0.119856045 -2.0321193 0.5890566 -1.8736311 0.83894163 -1.9483454 -0.87398905 -1.9191892 0.19757554 1.4823719 -0.037684202 -1.4432373 -1.1663587 -0.5353048 0.6512038 -0.9236823 -0.75898737 0.21839103 0.70478624 1.6713687 -0.5904339 0.5583676 -0.89008737 -0.035568055 -0.32018983 -2.046468 2.6140244 -1.2021157 0.9037839 0.24077088 0.5362825 -0.6542688 2.1773472 0.5102764 -0.520445 1.2184153 0.7155427 0.64113086 -0.24727525 1.5692186 -1.2971295 -1.1261796 0.77718943 -2.0157793 -0.878496 -1.3981881 -1.6056767 0.44143668 0.37846333 0.24001777 0.043947525 1.3130364 -1.2445798 -1.1102005 -0.7685549 -0.10732425 -0.6876138 1.840872 0.270477 -1.7633556 0.58151394 -0.027427476 -0.67940956 1.3910701 2.010271 0.983934 -0.8898737 -0.48822793 1.9181213 0.6051796 -0.54621005 0.2835198 -0.773014 -0.22889912 1.944603 1.2276092 0.3106212 -0.22199869 0.89201796 0.065711014 0.6900765
是 0.16018532 -0.81197375 -0.37749484 -0.13258304 0.6361502 0.48260608 0.9959908 1.3524328 0.6919376 -0.88300747 0.84318864 -0.10804265 -0.012370804 0.8314118 -0.52189636 -0.41234192 0.9609221 -0.38576546 -0.6591981 -0.20035943 -0.09999523 -0.7496395 -0.26482323 0.54373896 -0.043685414 -0.669087 -0.07464931 0.3836831 0.30006605 0.9480992 0.70624125 0.5441951 -0.20394234 -1.4242861 0.6071247 0.29119122 -0.33190358 -0.16987851 -0.34178764 0.83867437 -0.554902 0.20878343 0.3759364 0.18894707 -0.15719749 -0.15543681 0.64693546 0.08809567 0.1888202 1.2389419 0.07194351 -0.81461215 0.4996704 0.45309946 -0.9888615 0.6027035 0.6873845 1.126438 -0.03407771 0.15230718 0.41627866 -0.45789415 0.50709623 1.0374067 -0.092534445 0.07685852 -0.35749227 -0.42323974 0.5500131 -0.46061105 0.86296815 -0.733286 -0.30311272 -0.24061705 0.8521152 0.4337041 0.19511795 0.21415363 -0.24037434 -0.0073465863 -0.30906525 0.12813886 -0.3923784 -0.6600055 -0.25068426 0.25489894 0.27285126 -0.48132026 0.2709618 0.9759693 1.450914 0.014188917 0.123930715 0.11263717 0.33641627 0.41614586 -0.5921974 -0.51093936 0.44137493 -0.55657136
G 0.4413245 -1.2150968 -0.32377782 -0.11906746 1.5903754 -1.8798537 0.059662744 -0.5914176 0.6439268 -1.7084311 0.62073314 -1.2903998 -1.0693271 0.69902426 0.89435625 1.7159216 0.44107598 0.1868043 -0.74850744 -0.2756353 -0.5466475 0.6019917 -0.4908437 -1.1473384 -0.3671548 0.11512922 -0.39499444 -0.08272235 0.007685319 0.4986702 -0.087737754 -1.8058889 0.5574534 -1.0421935 -0.79925907 -0.5825613 1.2839262 0.8325973 -0.8774048 1.7486115 0.46710086 1.4872847 0.20309412 -0.62542045 1.0276581 -0.8035564 -0.1531808 -1.0370158 0.5535994 -0.68299776 0.6872218 -1.7473221 0.69716626 1.6254575 0.522408 1.2064139 0.40185753 -0.40535864 1.4319341 0.0057410905 -0.73652077 -1.1786615 0.15588053 0.9228344 0.31607804 0.48576352 -0.4150127 -0.8379074 1.6630738 -0.36763844 -0.4152615 -0.25080833 -0.10702277 -0.49877495 -0.9385706 -0.90581 -0.8081138 0.32644498 -0.30380958 -1.5578016 -0.08557624 0.43544832 -0.5454924 1.7407563 -0.5413955 1.9018631 -0.5594564 0.49910426 -0.5709255 1.8048931 1.5386425 0.29549253 -0.014873844 0.051951572 1.5208468 1.3989553 -0.34092772 0.9786212 1.2166604 -0.9262899
双 -1.37475 1.3982618 -0.8636508 -1.2497556 1.75318 0.44036168 -0.783907 0.812989 0.054941077 -1.3877149 -0.563052 -1.8325509 -0.2969941 -1.6135057 -0.6739666 0.7506855 -0.32968837 -0.60847837 0.14635356 -2.4344165 -1.0142157 -0.16620418 -0.13046893 -0.7292816 -2.093152 0.5495679 -0.14510182 -0.40045622 1.8542694 0.25006956 0.7824437 -0.32329923 0.6013702 -0.29372835 -1.4407774 1.6553912 -1.3751687 -1.0677769 0.0746155 0.370477 0.47488633 -0.94447196 0.73841625 -0.5153639 -0.082048066 1.377142 -0.88243127 0.2374786 -1.4291363 -0.5976382 0.23951206 -0.967909 1.9267015 0.23033062 0.7057959 -0.08339636 0.051442306 -0.27887148 -1.1983297 0.50431395 0.7253689 1.0012783 -0.6551428 0.6175361 0.5039595 -0.4046705 -0.4708967 0.21727856 -0.9218543 -0.25838172 -0.48064178 1.0282193 -0.032157667 0.22334206 1.0228899 1.305746 0.15366226 -0.7353922 0.98141396 -0.5917663 -1.4783015 -0.618445 -1.0187615 0.9840377 1.1264269 -0.8323642 2.0932763 0.84112895 -0.61850655 0.63917327 0.8524357 1.1002897 1.2680445 1.029096 -0.33062094 0.6160255 -1.1268905 -0.14529185 1.9290613 -0.49588588
效 0.25618848 0.7206199 -0.8185104 0.22459434 2.3546016 1.3356699 -2.104121 0.29687136 -0.79225695 0.788112 0.14432558 -2.6306207 0.9132169 1.4663864 0.357187 0.5544312 -0.13953963 1.3247463 0.31833985 0.9961716 0.9975207 0.28621116 -1.0832565 0.66619843 -1.1086767 1.2778717 0.48030975 -0.21879882 -0.2390667 -0.6808666 0.20436144 -0.8379387 -0.5386324 1.0451306 0.2427107 0.46429035 0.2593038 0.024687406 -0.05803415 0.91145706 -1.5462835 -1.1137035 0.51940626 -0.38833028 -1.7506913 1.2529329 -0.8044492 -0.32274622 -1.2157375 0.48703977 1.5353589 -0.5347797 0.60163593 -1.0977044 1.2106341 -0.15039217 0.05354374 0.74198157 -0.23858818 0.22032067 -0.23915888 0.080033734 0.37683332 0.46532425 -2.3102164 0.414201 1.1111596 -0.0074343267 0.19408064 0.9223471 -0.5878446 -1.3826761 -0.91988164 -1.4340566 0.5700897 1.2054309 0.5018342 2.239199 0.08137487 0.07606579 -0.71442586 -0.53647995 -0.9574302 0.13534285 -0.35615182 -0.48433593 0.5097488 -0.94567496 -0.057058115 0.6935033 -0.4883388 -0.3951351 0.24811184 2.343352 -0.020304251 -0.19555113 -1.898663 -0.46416336 -0.18846439 -0.26382938
控 -0.36784083 -0.0016539615 -0.7842477 -1.9120297 1.1734743 1.1808314 0.044143178 0.7200771 0.22189277 0.18123153 2.1098046 -0.39062184 0.8704874 0.93765527 2.9789202 -0.6973803 0.73514074 0.70503044 -0.24993508 -0.304209 0.65034586 -0.80106795 -1.5634806 1.072211 0.5607067 1.3571495 0.49288887 -0.5552589 1.6106269 0.9386301 -2.0120697 -0.9307387 0.5979926 -0.08641714 0.9953785 -1.3924229 1.1051431 -2.7861345 -0.036907703 1.8973396 -1.5750479 -1.1972821 0.6415258 0.053844295 -0.74211067 0.20679322 2.5398858 0.7309942 -0.20831314 2.8287401 0.016414013 -0.19100045 -0.189449 -0.80812603 0.2511225 -0.3217327 0.66020477 1.2974464 1.0589584 2.0412726 -0.8242892 0.83324367 -0.7098221 1.1747512 -1.0135471 0.34397358 -1.0697405 1.8911765 -0.51593804 1.0311435 0.7636904 0.41447031 0.12147961 -0.9187433 -0.0048459093 0.16134654 0.6598877 0.8112127 -0.20267601 1.1634089 0.729965 0.45654774 -0.5462447 -0.9812294 0.7772754 1.5429449 -0.50337917 -0.21451785 -0.5846602 -0.8092733 -0.3238682 -0.7631126 -1.8472186 1.6436224 0.9016955 1.3388038 1.6775934 0.16876453 1.7851735 -2.8314524
心 -0.77968615 -0.2743605 -1.1626316 -1.8098027 1.7690912 1.0857756 1.2241642 0.29649168 -0.73484474 -0.4654879 -0.4255446 1.2964971 -0.18258351 0.13742884 -0.1456332 -0.08011304 -0.23554358 1.4543761 -0.2671222 -0.004220269 0.3802632 -1.1300974 0.15627913 0.11209027 0.8714518 -0.6961598 0.48691732 -1.4824102 -1.3158091 -1.4425572 -0.67223287 0.39161694 0.57672524 -1.416434 1.8077178 1.2550995 -0.82217264 0.10149089 -0.1707088 -0.2995508 0.10851493 0.20596305 0.48015532 1.0344409 0.84239084 -0.24828729 -0.48256707 0.8239662 0.97174597 0.7134446 -0.6717396 2.1918201 0.517132 1.462796 -1.6416733 -0.0180821 -0.38593835 0.11262417 -0.05547276 1.4309802 0.6619533 0.68267846 1.0326165 1.5484794 -1.4594793 -0.37753424 1.7610681 0.5081407 -1.5656836 1.5457554 -1.2529876 1.663821 -0.59435284 0.31065446 0.8797488 0.6162289 1.192114 -0.43285468 0.014985584 0.091827355 0.4601283 -0.094831415 -0.3238578 0.17443681 -1.4868852 -0.85385936 1.5277956 0.8459494 0.5872856 -0.06900068 -0.9893181 0.47923672 -1.3297554 1.5075251 -0.43643412 0.34324428 0.72198284 -0.6177479 -0.06659917 0.66055524
要 0.5060474 0.33110756 0.6281664 -0.65892285 0.80219656 -0.0026554635 0.6215446 0.604583 0.5331993 0.97272235 0.43164235 -1.9261875 0.100372106 0.6462766 -0.41808772 -1.3887566 0.6760618 0.4526143 -0.36603105 -0.58309627 1.675666 0.71456176 -1.2235695 -0.63634825 1.5196359 -2.0723937 -0.48990467 0.19222474 -0.40164053 0.027671052 -0.1559148 0.9217064 -1.4024794 -1.661762 0.6968832 1.5126151 -0.19601339 -0.5355554 1.2289115 -1.808957 -0.5875418 -0.81970716 0.7341782 1.3937734 -0.35152978 -2.3640099 0.4963475 0.24478933 1.8932451 1.7961103 0.93622595 -1.8022444 1.8356063 -0.20111492 0.12895222 0.76486564 -1.1007459 0.49428147 -0.95496637 0.71816975 0.59133303 0.58065456 0.7838772 0.017806748 -0.78324676 0.5726525 -0.084598735 0.5278243 0.33555263 -1.2295904 2.1335065 -1.9193048 -1.2411653 -0.9772848 -0.41060048 1.7595277 0.24154925 -0.016206237 -0.2211422 0.43025818 -0.6233197 0.58449554 -1.5588154 -1.4955419 0.19324182 0.14044845 0.078059666 -2.0604665 -0.18667436 -0.5848335 1.7933004 -0.3613498 -1.1690474 -1.2234926 -0.54068667 0.4932317 -0.7845478 0.59193075 1.5246594 1.1839687
方 1.8004515 1.7366376 1.3008995 -0.49533725 1.3511785 0.042924743 -1.013358 -0.50528973 0.03134135 0.5965632 -0.2670493 -2.5445478 1.3787142 0.6688561 1.2607374 -1.0132968 0.7087466 0.69634914 -0.7108607 -1.4127386 1.4599149 -1.0350293 -0.5128118 0.38403666 -1.0542706 -0.68011147 1.1355054 -0.5655599 0.5781218 -0.08855013 -0.42093787 0.8224205 0.06865 -2.0333908 0.52010304 -1.3507285 0.6785002 -0.28799376 -0.16444123 0.65541416 -0.194965 -1.4148929 0.29921278 -1.0186534 0.97426754 -1.608089 0.30089372 -1.3224063 0.5005883 0.55846375 -0.39888495 -0.72439945 -0.030609531 0.23182611 0.4322799 -1.0921862 1.3194776 -0.502754 0.36511245 2.2267222 0.47423297 1.7320521 0.38297606 0.17525956 -1.1639742 1.962191 1.1174577 -0.53743356 -1.1482948 -0.3337007 -0.046493635 -1.612596 1.1483814 -0.87420297 0.28543115 1.531686 -0.1632489 0.542009 0.5348878 0.009083533 -1.412733 -0.86526084 0.874715 -0.9782606 1.9362072 1.7320793 -1.3161987 0.8106798 1.3852121 -0.5736133 0.11152142 0.16269955 0.65934885 -0.06872186 -0.8758635 -1.1922345 -1.7473544 -0.059248798 0.4112019 0.29066983
后 0.84539515 -0.18659641 -0.27090567 0.9611582 -0.14406756 -0.5004036 0.12341826 -0.6769498 -1.2686319 1.1254648 0.5834254 -0.54233974 0.5294982 0.11986185 0.9599028 -0.532754 0.361688 -0.66260844 -1.2833713 -0.9943271 0.7755221 0.9538478 -0.70483446 0.43244344 0.22946317 0.9570365 0.18887237 0.29928786 -0.7505032 -0.38334244 0.97150475 -0.5330519 0.24612871 -0.9067248 0.4327233 0.4493128 0.71223927 -0.25731438 -0.11530868 -0.30790457 -0.44874567 -0.971429 -0.95022935 -0.4438997 -0.69314873 0.1409419 -0.22180237 0.37958375 0.4404303 0.6763499 0.83464867 -0.71943074 -0.29432172 -0.25685266 0.6603175 0.26342803 -0.4699431 -0.103353016 -0.021848949 0.2967726 -0.17356469 -0.47538748 -0.2552361 0.22369336 -0.21624231 1.0821899 0.7391559 0.036436144 0.68260324 -0.091574 -0.36555472 -0.6055269 1.1467543 -0.6365739 -1.2817403 -0.33517852 -0.12935199 1.3123273 0.6346295 0.677894 -0.6865575 0.63731724 -0.69686145 -0.8285285 -0.758187 0.26685864 0.11838257 -1.3042417 -0.7563997 -0.061796777 0.14117636 0.04956109 0.04830895 -0.6236516 0.9412671 0.3184965 -0.71149546 0.48147967 -0.48215222 -0.95341367
加 -0.077161185 0.7472976 0.31223482 -1.1088463 0.28973186 -0.66535634 0.8649285 0.7997157 1.3846837 0.5287108 0.8326229 -0.49263063 1.2103124 -0.98725766 -0.66280144 -1.1903461 -0.32572272 -0.64897466 1.2156274 1.2529355 -0.26341704 0.8764072 -0.21939224 -1.1138054 0.7913466 0.05265162 -1.3119872 0.42128667 -0.16281703 -1.9024633 1.087325 -0.3006722 1.2186779 0.9233859 1.1043594 -0.51508415 1.6499567 -1.246633 1.8473824 -0.8991986 0.13978797 -1.3591883 -0.44755802 2.2268603 0.46492374 0.5945498 1.1496396 1.5183704 0.3930033 -0.28897214 -0.56537545 -1.5262655 -1.031863 -1.1447535 1.1416727 0.7176926 0.21753208 -2.2808964 -0.86230105 1.1516871 1.317641 -0.7398861 1.1160032 0.6993044 1.217766 0.33494192 1.5527122 0.14295135 0.19095811 1.7913029 -1.5367571 -1.4252262 -0.77269644 0.74472153 -1.3507233 -1.8712964 1.3401607 -0.9675108 -1.0396813 -0.003288346 -1.1798105 0.87701637 -2.3725133 1.6189705 1.7797273 -0.8931186 1.7244189 -1.1844114 0.043281186 -0.24598455 0.39318147 -1.3239367 1.0923439 0.7038522 0.4945711 0.056694426 -0.31082392 0.36127156 0.61582035 -0.45384255
H -1.2628499 1.1709316 0.42964837 -0.08485933 1.4233731 1.346439 -0.06021565 0.56315535 -0.032621622 -0.16016167 1.0597268 -1.5784597 0.80002534 0.4432298 -0.1017183 0.78750235 1.2777914 -1.7518454 -1.4698642 0.2985013 -0.30380988 0.13716541 -0.813725 -0.20614147 0.14339317 1.9968767 -0.062308364 -0.3187579 -0.122204766 -0.3226848 -0.72558284 -1.7035911 0.7370387 -1.938771 -1.2139139 -0.62323886 1.6021843 0.96519756 0.4818588 1.1800232 -0.043492366 -1.02245 0.34992042 1.8245502 0.8757555 -1.9057084 -0.69923526 -0.067893684 0.39692485 -0.26404628 -1.1163725 0.017695684 -1.0968965 0.18724807 0.40397823 0.30204475 -0.62472105 0.35479587 1.9628192 -1.0687957 0.27376693 -0.648826 0.8415915 0.565414 -0.29027885 -0.4330347 -1.016554 0.26681122 -0.23388976 0.15360072 -0.6589343 0.045924123 0.7874651 0.8797037 0.18805492 0.012832637 0.10905866 0.029249368 -0.1160458 0.74961746 -0.15985301 -0.10612251 1.7549794 1.1190126 0.14388372 1.1941189 -0.035556864 0.350854 -0.5889479 1.6378697 0.0026425987 -0.33649164 0.4453757 0.8497682 0.6830459 0.873776 1.8075742 0.780765 -1.4212421 -0.5790181
甲 -1.4435745 1.6685541 -0.32596305 -1.4268181 1.8101879 0.42948598 -1.0906773 1.3155364 -0.443044 -1.4770067 -0.66626453 -1.5500256 -0.39901012 -2.0534656 -0.6757512 0.4407534 -0.24611045 -0.45327625 -0.21927416 -2.5409844 -0.52086055 -0.660367 -0.18372738 -0.6536844 -2.016903 0.58145225 -0.34543085 -0.75612783 2.0163138 0.74482185 0.8898528 -0.47181222 0.8550676 -0.34078297 -1.3050352 1.6172296 -1.182645 -0.2802623 -0.27811018 -0.07577656 0.07403625 -0.55080944 0.6799942 0.29707906 -0.53324044 2.0648875 -0.6547267 0.5602366 -1.5064998 -0.53507286 -0.107939295 -1.0621469 1.5609113 0.4880628 0.7331088 -0.3413293 -0.4026902 -0.8219181 -0.48951405 0.61192364 0.4713897 1.1847144 -1.024213 0.26313066 0.45073 -0.49746186 -0.22727098 0.33246994 -1.0800937 0.06364039 -0.49423054 1.6749672 0.6389159 0.53924793 0.8780218 0.76289153 0.36139464 -1.0614371 0.15254906 -0.3176535 -1.2641003 -0.19254349 -0.5379629 0.26385486 1.5022172 -0.7128331 1.9681048 1.661318 -1.1141355 -0.05013977 0.4259413 1.2240669 1.3218238 1.341617 -0.1752141 0.37851802 -1.4887575 -0.25465634 1.4221448 -0.5163742
国 -1.0599865 -0.28850132 1.4444495 -1.7544199 -1.5249566 0.8953521 1.7358161 1.5442271 0.073185 -0.14353795 0.01805328 -0.34590295 0.40786448 0.44518027 0.19677943 -1.1128035 0.15979116 -0.47681317 1.6244957 -1.0439234 -0.35004497 1.9378868 -1.8781444 1.1273996 -0.460352 -0.08993245 1.3678409 1.0154566 -0.2248235 -0.0011570756 0.53470445 -0.67483836 -0.14734526 0.73956877 -0.64579165 -0.4550168 1.6330867 0.72659934 0.05967423 -0.06431709 1.2303739 0.13199343 -1.5001035 -1.2307295 -0.58891827 0.12088294 0.10634548 0.3480193 -0.4369273 -0.80770123 -1.4144518 -0.023282398 -0.67305875 -0.33340833 -2.4044032 0.98325896 0.72161895 0.7963902 1.1825031 0.79601824 0.15458365 -0.16694824 1.8744708 -0.1366989 -2.014252 0.5685201 -0.7425995 -0.45354334 0.44515803 -1.0017471 1.3309417 0.6271184 -1.324925 -0.63377947 1.6495613 -1.6038386 0.85107553 0.64312065 -1.4621346 -0.7475538 1.857028 0.41021174 -0.29154503 -0.64183176 0.5032614 0.4789752 -0.104160525 -0.47982737 2.3896103 0.48883873 0.030445468 0.24046378 0.22449788 1.4396937 0.48396787 1.0464041 -0.66966885 0.5057958 1.1839852 2.0500054
